tree
version=v4
num_class=1
num_tree_per_iteration=1
label_index=0
max_feature_idx=37
objective=regression
feature_names=BP__Systolic_mmHg Endometrium_mm BMI Fast_food_Y_N Skin_darkening_Y_N FSHmIU_mL TSH_mIU_L Avg_F_size_R_mm Antral_Follicle_Count Cycle_lengthdays LHmIU_mL I___beta_HCGmIU_mL PimplesY_N Avg_F_size_L_mm Marraige_Status_Yrs AMHng_mL hair_growthY_N Testosterone_Levelng_dL HeightCm Hbg_dl II_beta_HCG FSH_LH WaistHip_Ratio PRLng_mL PRGng_mL Vit_D3_ng_mL Hair_lossY_N RBSmg_dl Follicle_No_R Age Menstrual_Irregularity Weight_Kg Hipinch Pulse_ratebpm Waistinch Weight_gainY_N CycleR_I Follicle_No_L
feature_infos=[-19.637171183495266:4.7805491374651181] [-5.6183524156724935:6.3384155533633191] [-2.7923800814513795:2.7894413095217097] [-1.4412430836300316:1.3115526425398727] [-0.98176910754626834:1.9777500527213365] [-0.076311211693619443:37.069039290732441] [-1.1506511311745957:23.569422237751972] [-6.5319181182059411:3.7500585053716065] [-2.0956368343603633:1.9346603317178492] [-4.755588033267161:6.9342527057098593] [-0.091831141662565008:36.418768345218446] [-0.28755961666721525:13.049932449723311] [-1.4027130983839853:1.4147802340061622] [-5.9102623889380306:3.6396027501335397] [-1.7650520502163496:4.7656899787965639] [-1.3719581133520293:6.1784457607467713] [-0.9457768607657796:2.229478351521947] [-2.0150128478415281:2.0330840092841331] [-4.5172001125832848:3.8730258965581137] [-3.6151804465831394:4.7306765339006445] [-0.23357379629694769:21.369308244718884] [-0.16810635130616564:35.114212609893613] [-4.0209148297033419:2.7524687828759204] [-2.2580891132535026:10.347400106199231] [-0.20520126152893831:32.007210866635695] [-0.18243613271888504:27.756255067055562] [-1.3898340107252092:1.6148436134716868] [-2.5658893862885321:15.648942668809498] [-2.0622758547120514:4.2046677305990734] [-1.8126011580156771:2.1706926355416152] [-1.2106480904192145:1.1236971389801966] [-2.7698903302121289:3.9254387825944628] [-3.8646347697057042:2.7418683194018278] [-21.282302995370628:3.0067754191088816] [-3.479824862377014:4.0759191981268348] [-1.0846259337020165:1.4836109498794332] [-0.95803812059024884:3.5503191997362205] [-1.995628987128762:4.9365897389847921]
tree_sizes=1904 2004 1996 2021 2010 2004 2021 1988 2048 1992 1994 2010 2069 2041 2041 2018 2052 2022 2025 2042 2038 2011 2042 2033 2031 2066 2048 2044 2009 1997 1998 2033 2067 2079 2036 2038 1996 2003 2044 2031 2035 2065 2055 2000 2021 2077 2061 2066 2058 2052 2055 2052 2068 2058 2057 2077 2059 2076 2076 2039 2048 2057 2071 2025 2055 2095 2040 2055 2035 2083 2072 2069 2115 2074 2083 2063 2065 2068 2118 2123 2062 2123 2092 2100 2127 2090 2097 2091 2075 2104 2093 2116 2102 2113 2098 2086 2109 2087 2107 2064 2115 2130 2055 2133 2074 2043 2094 2071 2131 2087 2072 2099 2082 2105 2082 2111 2146 2165 2122 2123 2154 2110 2044 2142 2138 2105 2180 2137 2137 2182 2187 2157 2174 2128 2171 2138 2091 2195 2138 2129 2168 2121 2164 2118 2147 2168 2085 2176 2157 2143 2140 2070 2161 2126 2156 2168 2118 2076 2108 2134 2153 2165 2186 2104 2146 2123 2176 2135 2173 2184 2124 2143 2195 2110 2108 2158 2208 2149 2120 2195 2157 2116 2189 2175 2214 2099 2154 2091 2154 2152 2165 2119 2122 2196 2105 2166 2103 2093 2207 2158 2193 2195 2151 2149 2177 2191 2172 2184 2130 2138 2148 2175 2143 2155 2132 2161 2108 2139 2170 2178 2179 2130 2192 2141 2190 2163 2207 2160 2137 2201 2137 2191 2180 2175 2225 2192 2190 2180 2163 2147 2120 2156 2166 2192 2159 2158 2187 2129 2178 2160 2123 2137 2146 2125 2172 2187 2163 2139 2167 2214 2162 2141 2165 2137 2113 2175 2175 2197 2150 2205 2125 2182 2195 2173 2168 2181 2110 2137 2140 2170 2176 2179 2202 2193 2168 2132 2148 2160 2132 2205 2149 2191 2189 2205 2150 2215 2178 2171 2167 2155 2183 2193 2196 2160 2134 2175 2189 2119 2172 2182 2158 2138 2167 2194 2165 2138 2159 2165 2108 2159 2209 2185 2112 2173 2136 2228 2109 2149 2138 2195 2146 2155 2158 2193 2160 2194 2144 2157 2168 2199 2182 2185 2163 2117 2160 2186 2202 2167 2203 2106 2204 2152 2150 2198 2194 2169 2146 2151 2208 2177 2171 2102 2177 2154 2165 2168 2146 2176 2178 2191 2146 2134 2176 2128 2115 2106 2123 2171 2147 2214 2178 2198 2207 2160 2167 2148 2178 2135 2170 2232 2157 2196 2204 2204 2122 2230 2205 2168 2181 2195 2254 2154 2136 2204 2130 2162 2233 2231 2222 2129 2246 2197 2251 2176 2223 2180 2145 2224 2177 2189 2160 2154 2150 2099 2156 2186 2172 2217 2157 2211 2224 2216 2216 2102 2172 2245 2172 2132 2226 2155 2241 2174 2190 2216 2209 2182 2199 2200 2124 2190 2202 2189 2151 2158 2174 2095 2172 2156 2193 2203 2205 2186 2194 2182 2209 2156 2215 2179 2178 2213 2180 2160 2218 2181 2139 2174 2226 2243 2141 2131 2195 2183 2210 2211 2215 2124 2164 2134 2203 2219 2171 2253 2212 2118 2240 2141 2135 2202 2188 2167 2135 2190 2165 2240 2167 2206 2159 2224 2205 2173 2151 2220 2188 2212 2177 2170 2175 2128 2244 2207 2200 2167 2143 2170 2182 2190 2189 2179 2181 2144 2117 2112 2225 2163 2229 2214 2211 2156 2185 2177 2171 2198 2175 2170 2123 2173 2173 2218 2178 2157 2163 2183 2177 2130 2238 2193 2128 2155 2172 2171 2168 2107 2190 2217 2145 2195 2191 2248 2141 2129 2205 2166 2199 2207 2219 2197 2193 2191 2196 2158 2177 2095 2163 2154 2129 2189 2165 2199 2194 2150 2209 2215 2202 2186 2218 2161 2161 2227 2194 2150 2146 2109 2170 2198 2133 2181 2142 2147 2178 2198 2162 2179 2193 2157 2212 2162 2183 2163 2135 2155 2225 2186 2150 2207 2178 2191 2170 2186 2204 2228 2165 2169 2181 2169 2157 2202 2196 2186 2193 2186 2155 2210 2188 2152 2161 2175 2182 2231 2176 2190 2205 2182 2205 2202 2213 2095 2183 2206 2253 2238 2237 2126 2247 2188 2191 2195 2175 2188 2133 2108 2165 2240 2213 2174 2202 2187 2189 2185 2172 2159 2205 2196 2142 2119 2164 2194 2199 2187 2208 2145 2125 2195 2199 2187 2161 2149 2195 2171 2221 2143 2210 2223 2179 2239 2174 2189 2214 2190 2189 2214 2176 2175 2189 2177 2223 2222 2142 2124 2170 2155 2153 2173 2113 2165 2143 2133 2191 2169 2137 2138 2193 2141 2174 2133 2196 2106 2182

Tree=0
num_leaves=20
num_cat=0
split_feature=30 35 17 8 37 37 2 35 16 4 4 37 9 18 21 18 9 7 6
split_gain=33.8532 43.3364 24.5246 20.8117 19.4311 10.887 8.23249 7.51201 4.87439 4.76038 3.63594 3.025 2.31017 3.07374 1.78909 1.74999 1.5031 1.27272 1.16666
threshold=-0.97721356747927335 -0.31415486862758157 -0.95378244369279563 -1.2056128768514245 -0.90628033016806053 1.7015543334651337 -0.12785024764724431 1.2267872615212885 -0.62825133953700685 1.6817981366945765 -0.68581719151950771 -0.048005630744477785 -0.76155911411667854 0.38616684774545706 -0.083937448675884166 0.91235061294000197 1.0000000180025095e-35 1.1367227802123134 -0.4944939874020105
decision_type=2 2 2 2 2 2 2 2 2 2 2 2 2 2 2 2 2 2 2
left_child=-1 5 -3 -4 -5 9 7 -6 10 12 16 -11 13 -2 -9 -15 -8 -7 -12
right_child=1 2 3 4 6 17 8 14 -10 11 18 -13 -14 15 -16 -17 -18 -19 -20
leaf_value=0.23747908562590242 0.23967932123495098 0.23803991122447574 0.23728851656773373 0.23991840128813818 0.23728851931985351 0.25043792831788986 0.25482106502350826 0.26233503004335129 0.26331901356774157 0.24123334474723385 0.25043792362247247 0.25569770400616393 0.2381520587822287 0.26358732514527849 0.24924253128598095 0.24605479474255254 0.24104549695081615 0.26358734800346012 0.26358735562286545
leaf_weight=414 33 70 41 40 20 8.0000000000000018 9.0000000000000018 21 196 20 6.0000000000000027 20 335 6.9999999999999991 10.999999999999998 8.9999999999999982 13.999999999999998 13.999999999999998 21
leaf_count=414 33 70 41 40 20 8 9 21 196 20 6 20 335 7 11 9 14 14 21
internal_value=0.243697 0.246574 0.252342 0.254983 0.257129 0.240768 0.25944 0.249932 0.261449 0.239832 0.25412 0.248466 0.238932 0.244266 0.257834 0.253725 0.246436 0.258806 0.260665
internal_weight=1309 895 449 379 338 446 298 52 246 424 50 40 384 49 32 16 23 22 27
internal_count=1309 895 449 379 338 446 298 52 246 424 50 40 384 49 32 16 23 22 27
is_linear=0
shrinkage=1


Tree=1
num_leaves=20
num_cat=0
split_feature=30 35 17 8 37 37 2 35 16 4 4 37 11 34 21 21 13 9 7
split_gain=32.096 41.087 23.2516 19.7315 18.4225 10.3219 7.80518 7.1221 4.62138 4.51328 3.44721 2.86798 2.25775 2.087 1.69623 1.63203 1.46749 1.31445 1.20666
threshold=-0.97721356747927335 -0.31415486862758157 -0.95378244369279563 -1.2056128768514245 -0.90628033016806053 1.7015543334651337 -0.12785024764724431 1.2267872615212885 -0.62825133953700685 1.6817981366945765 -0.68581719151950771 -0.048005630744477785 1.8862739975465672 -1.0000000180025095e-35 -0.083937448675884166 -0.15255759219431209 -0.27982106736041751 1.0000000180025095e-35 1.1367227802123134
decision_type=2 2 2 2 2 2 2 2 2 2 2 2 2 2 2 2 2 2 2
left_child=-1 5 -3 -4 -5 9 7 -6 10 12 16 -11 15 -14 -9 -2 -8 -18 -7
right_child=1 2 3 4 6 18 8 14 -10 11 -12 -13 13 -15 -16 -17 17 -19 -20
leaf_value=-0.0060548568631499005 0.0066880581325148144 -0.0055087802276343875 -0.0062404141789823018 -0.0036796922465077778 -0.0062404114949197514 0.0065631837215560781 -0.0064297777296984659 0.018147405464440318 0.019105510266175057 -0.0023993305392114631 0.016521553253732918 0.011684632428089927 -0.0033454879330419144 0.015800915266073887 0.0053992236752643452 -0.005321522800600745 0.015840337873637797 0.00023549220818215518 0.019366788207406966
leaf_weight=414 7.9999999999999991 70 41 40 20 8.0000000000000018 8.0000000000000018 21 196 20 27 20 8.9999999999999982 6.9999999999999991 10.999999999999998 360 6.9999999999999991 7.9999999999999991 13.999999999999998
leaf_count=414 8 70 41 40 20 8 8 21 196 20 27 20 9 7 11 360 7 8 14
internal_value=0 0.00280079 0.00841673 0.0109887 0.0130786 -0.00285291 0.0153281 0.00607075 0.0172849 -0.00376425 0.0101482 0.00464265 -0.00463996 0.00503107 0.0137652 -0.00506044 0.00266644 0.00751776 0.0147109
internal_weight=1309 895 449 379 338 446 298 52 246 424 50 40 384 16 32 368 23 15 22
internal_count=1309 895 449 379 338 446 298 52 246 424 50 40 384 16 32 368 23 15 22
is_linear=0
shrinkage=0.0262989


Tree=2
num_leaves=20
num_cat=0
split_feature=30 28 17 2 8 16 17 8 2 28 3 7 37 21 26 15 4 33 32
split_gain=30.43 33.175 15.3609 14.7954 12.4776 9.288 12.6335 8.59722 7.99416 7.0334 5.28119 4.45924 2.76794 2.60299 2.34175 2.01234 1.93561 1.81413 1.5397
threshold=-0.97721356747927335 0.28782798977962043 -0.95378244369279563 -0.12785024764724431 -1.2056128768514245 -0.62825133953700685 -0.88073407935368631 -1.2056128768514245 -0.12785024764724431 1.0398612200169557 -1.1659635110130411 1.1367227802123134 -0.90628033016806053 -0.15255759219431209 1.3143758510519976 0.084867461728789478 1.6817981366945765 0.15544882262650384 1.0000000180025095e-35
decision_type=2 2 2 2 2 2 2 2 2 2 2 2 2 2 2 2 2 2 2
left_child=-1 3 -3 13 -4 15 -7 -8 9 14 -10 12 -9 -2 -6 -5 -15 -11 -18
right_child=1 2 4 5 8 6 7 11 10 17 -12 -13 -14 16 -16 -17 18 -19 -20
leaf_value=-0.0058956208842942575 0.0098632860740488926 -0.0050095555151982458 -0.0060871146037558763 -0.0054112449668252899 -0.0045588467935613374 -0.0054068076620424222 -0.0060762942052301613 0.0013042011739356014 0.0010649327131381798 0.0091496316386756159 0.017935627148262277 -0.0033918111222992872 0.018567688895601588 -0.0059563466573844953 0.01062570893184234 0.0036584597408012487 -0.0023451249646245739 0.018271412034418684 0.012083185950741078
leaf_weight=414 7.9999999999999991 46 26 64 32 37 14.999999999999998 6.9999999999999991 13.999999999999998 38 154 7.9999999999999991 78 285 8.9999999999999982 23 19.000000000000004 25 6.9999999999999991
leaf_count=414 8 46 26 64 32 37 15 7 14 38 154 8 78 285 9 23 19 25 7
internal_value=1.04073e-10 0.00272714 0.00913521 -0.00127355 0.0113186 0.00377976 0.00785571 0.0123994 0.0129824 0.00725212 0.0165297 0.0153793 0.017146 -0.00494867 -0.00122565 -0.00301351 -0.00532969 0.0127694 0.00153943
internal_weight=1309 895 344 551 298 232 145 108 272 104 168 93 85 319 41 87 311 63 26
internal_count=1309 895 344 551 298 232 145 108 272 104 168 93 85 319 41 87 311 63 26
is_linear=0
shrinkage=0.0262989


Tree=3
num_leaves=20
num_cat=0
split_feature=30 35 17 8 37 28 2 35 16 28 16 28 11 34 25 13 9 21 21
split_gain=28.8505 37.1778 20.9676 17.7861 16.6722 12.0793 6.94785 6.51153 4.15112 4.0753 3.28881 2.95122 2.39218 2.3297 1.76087 1.73438 1.70771 1.56418 1.16062
threshold=-0.97721356747927335 -0.31415486862758157 -0.95378244369279563 -1.2056128768514245 -0.90628033016806053 1.2905389634294007 -0.12785024764724431 1.2267872615212885 -0.62825133953700685 0.41316686148584286 1.9119528302931745 -0.52687467631082585 1.8862739975465672 -0.22756981024709702 -0.039134828320458219 0.038507770608635111 1.0000000180025095e-35 -0.083937448675884166 -0.15255759219431209
decision_type=2 2 2 2 2 2 2 2 2 2 2 2 2 2 2 2 2 2 2
left_child=-1 5 -3 -4 -5 10 7 -6 9 16 12 -12 18 -13 -14 -7 -8 -9 -2
right_child=1 2 3 4 6 15 8 17 -10 -11 11 13 14 -15 -16 -17 -18 -19 -20
leaf_value=-0.0057405729670861856 0.006291243797427671 -0.0052263708351655931 -0.0059178733455669992 -0.0035182257859719557 -0.0059417024511626264 0.0018852161363212671 0.0086888916010539573 0.017395343523398377 0.018135774404787711 0.016035565586947024 -0.004582676736845032 0.019296959407648497 -0.0028865495693314136 0.0013454076731496132 0.015174853225334319 0.015216061974338776 -0.0063271896841398216 0.0051534260035235591 -0.0053735307760805319
leaf_weight=414 5.9999999999999991 70 41 40 20 8.9999999999999982 10.000000000000002 21 196 29 17 10.000000000000002 7.9999999999999991 9.9999999999999982 6.9999999999999991 27 10.999999999999998 10.999999999999998 352
leaf_count=414 6 70 41 40 20 9 10 21 196 29 17 10 8 10 7 27 11 11 352
internal_value=7.98231e-11 0.00265542 0.00799751 0.0104399 0.0124241 -0.00272261 0.0145641 0.00582992 0.0164103 0.00964643 -0.00400509 0.00347347 -0.00474693 0.0103212 0.00554211 0.0118834 0.000823326 0.0131872 -0.00517803
internal_weight=1309 895 449 379 338 446 298 52 246 50 410 37 373 20 15 36 21 32 358
internal_count=1309 895 449 379 338 446 298 52 246 50 410 37 373 20 15 36 21 32 358
is_linear=0
shrinkage=0.0262989


Tree=4
num_leaves=20
num_cat=0
split_feature=30 35 8 37 37 2 4 12 4 37 9 18 16 26 31 7 25 18 7
split_gain=27.353 35.248 14.9653 12.3878 8.97717 5.04782 3.94336 3.50706 2.54631 2.52784 1.94646 2.66448 1.66707 2.18595 2.34426 1.96548 1.54928 1.47505 1.10554
threshold=-0.97721356747927335 -0.31415486862758157 -1.2056128768514245 -0.77423806871827849 1.7015543334651337 -0.59124674048274628 1.6817981366945765 1.1330309007671477 0.49799047258753421 -0.048005630744477785 -0.76155911411667854 0.38616684774545706 1.9119528302931745 1.3143758510519976 -0.15262531338773386 -0.9552310469930686 -0.077224640186490612 0.91235061294000197 1.1367227802123134
decision_type=2 2 2 2 2 2 2 2 2 2 2 2 2 2 2 2 2 2 2
left_child=-1 4 -3 -4 6 7 10 -5 12 -8 11 -2 13 14 -7 -16 -15 -13 -6
right_child=1 2 3 5 18 8 9 -9 -10 -11 -12 17 -14 16 15 -17 -18 -19 -20
leaf_value=-0.0055896022056595978 -0.0036939284781373539 -0.0057758718990648479 -0.0028978181804514484 -0.0059219235138982399 0.0059299710863325661 -0.00048710673038802839 -0.0022539357226630265 0.0133192008056421 0.014718292143184498 0.010968503203219572 -0.0050355647184384608 0.018437796548819978 0.016965309740807961 0.010429885372850259 0.00063937723653256448 0.012284558214924088 -0.006473959400022853 0.0023413569765045159 0.018185371295770397
leaf_weight=414 33 50 49 19 8.0000000000000018 12.999999999999998 20 10.000000000000002 147 20 335 6.9999999999999991 21 5.9999999999999991 10.999999999999998 113 9.9999999999999982 8.9999999999999982 13.999999999999998
leaf_count=414 33 50 49 19 8 13 20 10 147 20 335 7 21 6 11 113 10 9 14
internal_value=9.09e-11 0.00258558 0.00778718 0.00948681 -0.00265101 0.0112207 -0.00350091 0.00071295 0.01217 0.00435729 -0.00431947 0.000576274 0.0100171 0.00906337 0.0101376 0.0112515 -0.000135013 0.00938356 0.0137289
internal_weight=1309 895 449 399 446 350 424 29 321 40 384 49 174 153 137 124 16 16 22
internal_count=1309 895 449 399 446 350 424 29 321 40 384 49 174 153 137 124 16 16 22
is_linear=0
shrinkage=0.0262989


Tree=5
num_leaves=20
num_cat=0
split_feature=30 35 17 8 37 28 2 35 16 28 16 28 11 34 13 34 9 28 17
split_gain=25.9332 33.4185 19.7069 16.0947 15.1302 11.027 6.40057 5.94856 3.83359 3.77804 3.0494 2.73127 2.18866 2.17222 1.61323 1.58768 1.57868 1.32061 1.22883
threshold=-0.97721356747927335 -0.31415486862758157 -0.95378244369279563 -1.2056128768514245 -0.90628033016806053 1.2905389634294007 -0.12785024764724431 1.2267872615212885 -0.62825133953700685 0.41316686148584286 1.9119528302931745 -0.52687467631082585 1.8862739975465672 -0.22756981024709702 0.038507770608635111 -1.0000000180025095e-35 1.0000000180025095e-35 0.72651404075139936 -0.073143829160195753
decision_type=2 2 2 2 2 2 2 2 2 2 2 2 2 2 2 2 2 2 2
left_child=-1 5 -3 -4 -5 10 7 -6 9 16 12 -12 -2 -13 -7 -14 -8 18 -9
right_child=1 2 3 4 6 14 8 17 -10 -11 11 13 15 -15 -16 -17 -18 -19 -20
leaf_value=-0.0054426020077064825 -0.0049333208022974851 -0.0052377852401018369 -0.0056103414628355039 -0.0033494910160362362 -0.0057580272696474716 0.0017313767901743782 0.0082156666860391542 -0.0027876896315173721 0.017306520133511243 0.015300020926689631 -0.0043555471489978275 0.018649267919887663 -0.0026827657012639199 0.0013150667679932317 0.014588199833812366 0.014467428291598628 -0.0062219770596724571 0.016663583537096096 0.014043748380020449
leaf_weight=414 358 70 41 40 20 8.9999999999999982 10.000000000000002 6 196 29 17 10.000000000000002 7.9999999999999991 9.9999999999999982 27 6.9999999999999991 10.999999999999998 20 5.9999999999999982
leaf_count=414 358 70 41 40 20 9 10 6 196 29 17 10 8 10 27 7 11 20 6
internal_value=1.21436e-10 0.00251758 0.00758239 0.00995023 0.0118378 -0.00258129 0.0138763 0.00549323 0.0156483 0.00914831 -0.00380663 0.00339457 -0.00452096 0.00998218 0.011374 0.00532066 0.000653092 0.0125253 0.00562804
internal_weight=1309 895 449 379 338 446 298 52 246 50 410 37 373 20 36 15 21 32 12
internal_count=1309 895 449 379 338 446 298 52 246 50 410 37 373 20 36 15 21 32 12
is_linear=0
shrinkage=0.0262989


Tree=6
num_leaves=20
num_cat=0
split_feature=30 35 17 8 37 28 2 35 16 28 16 28 11 34 13 25 9 21 21
split_gain=24.5871 31.6838 18.684 15.2593 14.3449 10.4546 6.06834 5.63979 3.63461 3.58194 2.89111 2.5895 2.07505 2.05947 1.5295 1.52535 1.49673 1.40468 1.06483
threshold=-0.97721356747927335 -0.31415486862758157 -0.95378244369279563 -1.2056128768514245 -0.90628033016806053 1.2905389634294007 -0.12785024764724431 1.2267872615212885 -0.62825133953700685 0.41316686148584286 1.9119528302931745 -0.52687467631082585 1.8862739975465672 -0.22756981024709702 0.038507770608635111 -0.039134828320458219 1.0000000180025095e-35 -0.083937448675884166 -0.15255759219431209
decision_type=2 2 2 2 2 2 2 2 2 2 2 2 2 2 2 2 2 2 2
left_child=-1 5 -3 -4 -5 10 7 -6 9 16 12 -12 18 -13 -7 -14 -8 -9 -2
right_child=1 2 3 4 6 14 8 17 -10 -11 11 13 15 -15 -16 -17 -18 -19 -20
leaf_value=-0.0052994681378992084 0.0061821877391121374 -0.0051000376273613902 -0.005462796024470272 -0.0032614034677711087 -0.0056065978242416303 0.0016858434035359085 0.0079996044101310945 0.016183686593968356 0.016851378831247352 0.014897648640065342 -0.0042410013678490224 0.01815881442258465 -0.0026640325312211289 0.0012804819279737267 0.014204547127083812 0.014146175070062808 -0.0060583463386768201 0.0045827195412002824 -0.0049908377069527816
leaf_weight=414 5.9999999999999991 70 41 40 20 8.9999999999999982 10.000000000000002 21 196 29 17 10.000000000000002 7.9999999999999991 9.9999999999999982 27 6.9999999999999991 10.999999999999998 10.999999999999998 352
leaf_count=414 6 70 41 40 20 9 10 21 196 29 17 10 8 10 27 7 11 11 352
internal_value=1.07964e-10 0.00245137 0.00738298 0.00968855 0.0115264 -0.00251341 0.0135114 0.00534876 0.0152368 0.00890772 -0.00370652 0.0033053 -0.00440207 0.00971966 0.0110749 0.00518074 0.000635917 0.0121959 -0.00480358
internal_weight=1309 895 449 379 338 446 298 52 246 50 410 37 373 20 36 15 21 32 358
internal_count=1309 895 449 379 338 446 298 52 246 50 410 37 373 20 36 15 21 32 358
is_linear=0
shrinkage=0.0262989


Tree=7
num_leaves=20
num_cat=0
split_feature=30 35 17 8 37 28 31 37 16 28 16 28 36 11 34 4 13 34 28
split_gain=23.3109 30.0393 17.7142 14.4673 13.6003 9.91198 4.28263 4.33153 2.74105 2.45509 2.27508 3.23059 2.76733 1.96734 1.95257 1.86571 1.45011 1.44748 1.16164
threshold=-0.97721356747927335 -0.31415486862758157 -0.95378244369279563 -1.2056128768514245 -0.90628033016806053 1.2905389634294007 -0.12306152250001677 0.94231133012888735 1.9119528302931745 -0.52687467631082585 -0.62825133953700685 0.85185291245762162 -0.65748096590181748 1.8862739975465672 -0.22756981024709702 1.6817981366945765 0.038507770608635111 -1.0000000180025095e-35 0.099819682220286601
decision_type=2 2 2 2 2 2 2 2 2 2 2 2 2 2 2 2 2 2 2
left_child=-1 5 -3 -4 -5 8 7 15 13 -10 11 12 -8 -2 -11 18 -7 -15 -6
right_child=1 2 3 4 6 16 10 -9 9 14 -12 -13 -14 17 -16 -17 -18 -19 -20
leaf_value=-0.0051600979057262056 -0.0046772514661561791 -0.0049659125177014315 -0.0053191308047535486 -0.0031756323517600654 0.0046205121084447317 0.0016415077849463574 -0.0046192896362795641 0.017078346358288938 -0.0041294679232170171 0.017681259201719441 0.016042506523750142 0.017128476247873448 0.013007633848711677 -0.0025974124674746192 0.0012468068048774002 0.010972284669331797 0.013830984137345192 0.013778080119246944 -0.0058227797891843274
leaf_weight=414 358 70 41 40 13.000000000000002 8.9999999999999982 14 20 17 10.000000000000002 190 21 11 7.9999999999999991 9.9999999999999982 11.999999999999998 27 6.9999999999999991 17
leaf_count=414 358 70 41 40 13 9 14 20 17 10 190 21 11 8 10 12 27 7 17
internal_value=2.22027e-10 0.00238691 0.00718882 0.00943375 0.0112233 -0.00244731 0.013156 0.00700507 -0.00360905 0.00321838 0.014772 0.00952418 0.00313656 -0.0042863 0.00946404 0.00220826 0.0107836 0.00504449 -0.00129735
internal_weight=1309 895 449 379 338 446 298 62 410 37 236 46 25 373 20 42 36 15 30
internal_count=1309 895 449 379 338 446 298 62 410 37 236 46 25 373 20 42 36 15 30
is_linear=0
shrinkage=0.0262989


Tree=8
num_leaves=20
num_cat=0
split_feature=30 35 17 37 28 2 35 37 21 27 28 21 11 25 16 37 28 12 13
split_gain=22.1009 28.48 16.7947 10.1881 9.39748 5.4832 5.62925 2.67522 1.90089 1.56301 2.11616 1.5149 1.47253 1.6968 1.58602 1.60461 1.46282 2.65438 1.37484
threshold=-0.97721356747927335 -0.31415486862758157 -0.95378244369279563 -0.77423806871827849 1.2905389634294007 -0.14891372459431287 1.2267872615212885 1.7015543334651337 -0.15255759219431209 -0.80093496991523994 0.85185291245762162 -0.083937448675884166 1.8862739975465672 -0.039134828320458219 1.9119528302931745 -0.70821693799338759 -0.40153580460460331 -1.1209637651449702 0.038507770608635111
decision_type=2 2 2 2 2 2 2 2 2 2 2 2 2 2 2 2 2 2 2
left_child=-1 4 -3 -4 7 6 -5 8 -2 10 -7 -8 14 -14 -10 -16 17 -11 -6
right_child=1 2 3 5 18 9 11 -9 12 16 -12 -13 13 -15 15 -17 -18 -19 -20
leaf_value=-0.0050243933573545499 0.0089189011140749942 -0.0048353146386661688 -0.0024156723428439531 -0.0053493647962304129 0.0015983379741851375 -0.0042144232376683348 0.015381692901601759 0.013917531396440424 -0.0048678585035826193 -0.0042557575128725489 0.012655328823339026 0.0028452470778876564 -0.0034087848125301553 0.013473322860599019 -0.0055217095845020298 0.0067522645338469831 0.013774291509734049 0.011856810957554914 0.013467244877454584
leaf_weight=414 7.9999999999999991 70 46 27 8.9999999999999982 9.0000000000000018 20.000000000000004 5.9999999999999991 349 8.9999999999999982 11.999999999999998 9.9999999999999982 10.000000000000002 6.9999999999999991 13.000000000000002 17 213 33 27
leaf_count=414 8 70 46 27 9 9 20 6 349 9 12 10 10 7 13 17 213 33 27
internal_value=1.15748e-10 0.00232413 0.00699976 0.00918566 -0.00238294 0.0107882 0.00336234 -0.00351413 -0.00377302 0.0123219 0.00542544 0.0112029 -0.00402942 0.00354268 -0.00436907 0.00143354 0.0128898 0.00840412 0.0105
internal_weight=1309 895 449 379 446 333 57 410 404 276 21 30 396 17 379 30 255 42 36
internal_count=1309 895 449 379 446 333 57 410 404 276 21 30 396 17 379 30 255 42 36
is_linear=0
shrinkage=0.0262989


Tree=9
num_leaves=20
num_cat=0
split_feature=30 35 17 8 37 37 2 3 4 4 37 2 37 9 18 18 20 6 7
split_gain=20.9538 27.0017 15.923 13.6587 12.3327 7.1422 5.31471 4.90337 3.36425 2.89508 2.11893 1.84374 1.62909 1.55254 2.24005 1.22432 1.18715 1.1492 0.902067
threshold=-0.97721356747927335 -0.31415486862758157 -0.95378244369279563 -1.2056128768514245 -0.90628033016806053 1.7015543334651337 -0.12785024764724431 1.0362730699228826 1.6817981366945765 -0.68581719151950771 -0.048005630744477785 0.52511753771187186 1.2724169837533423 -0.76155911411667854 0.38616684774545706 0.91235061294000197 -0.23212202513365335 -0.0054209423046950936 1.1367227802123134
decision_type=2 2 2 2 2 2 2 2 2 2 2 2 2 2 2 2 2 2 2
left_child=-1 5 -3 -4 -5 8 7 16 13 11 -10 12 17 14 -2 -16 -6 -8 -7
right_child=1 2 3 4 6 18 9 -9 10 -11 -12 -13 -14 -15 15 -17 -18 -19 -20
leaf_value=-0.0048922576947236273 -0.0033774067131287261 -0.0047081514945737039 -0.0053906106622485196 -0.0030285874530737145 0.0084318076099666895 0.0052452127443161035 -0.004839185320652843 0.014314851025077183 -0.0018729982403470991 0.015488038760359596 0.010232852395549899 0.014940265953416236 0.016107505710269053 -0.0044739651127187413 0.01686223293268151 0.0021975257513675052 -0.0046470027913469939 0.0072321539445832543 0.016315505982705973
leaf_weight=414 33 70 41 40 6.0000000000000027 8.0000000000000018 12.000000000000005 22 20 201 20 17 5.9999999999999991 335 6.9999999999999991 8.9999999999999982 24 9.9999999999999982 13.999999999999998
leaf_count=414 33 70 41 40 6 8 12 22 20 201 20 17 6 335 7 9 24 10 14
internal_value=2.00172e-10 0.00226301 0.00681567 0.00894409 0.0106829 -0.00232028 0.0125234 0.00488442 -0.00307835 0.0141381 0.00417993 0.00810847 0.00396059 -0.00383442 0.000537942 0.00861335 -0.00203124 0.000647788 0.01229
internal_weight=1309 895 449 379 338 446 298 52 424 246 40 45 28 384 49 16 30 22 22
internal_count=1309 895 449 379 338 446 298 52 424 246 40 45 28 384 49 16 30 22 22
is_linear=0
shrinkage=0.0262989


Tree=10
num_leaves=20
num_cat=0
split_feature=30 35 17 8 37 37 2 35 4 4 37 2 37 9 18 21 18 6 14
split_gain=19.8661 25.6002 15.0965 12.9497 11.6925 6.77148 5.03884 4.65736 3.18963 2.74481 2.00895 1.74804 1.54453 1.47195 2.12378 1.23844 1.16077 1.08955 0.953932
threshold=-0.97721356747927335 -0.31415486862758157 -0.95378244369279563 -1.2056128768514245 -0.90628033016806053 1.7015543334651337 -0.12785024764724431 1.2267872615212885 1.6817981366945765 -0.68581719151950771 -0.048005630744477785 0.52511753771187186 1.2724169837533423 -0.76155911411667854 0.38616684774545706 -0.083937448675884166 0.91235061294000197 -0.0054209423046950936 -0.68747961542921876
decision_type=2 2 2 2 2 2 2 2 2 2 2 2 2 2 2 2 2 2 2
left_child=-1 5 -3 -4 -5 8 7 -6 13 11 -10 12 17 14 -2 -9 -16 -8 -12
right_child=1 2 3 4 6 -7 9 15 10 -11 18 -13 -14 -15 16 -17 -18 -19 -20
leaf_value=-0.0047635968544380144 -0.0032885848164477477 -0.0045843325043725194 -0.0052488437254770825 -0.002948939161645724 -0.0051995814168742278 0.011966740640488393 -0.0047119204720746178 0.01472260914131286 -0.0018237405413957253 0.015080721178750171 0.017790872468983521 0.014547354515256667 0.01568389721875137 -0.0043563048685615448 0.016418776995090777 0.0038297074970757971 0.0021397337042624027 0.0070419568010552328 0.005749113274925932
leaf_weight=414 33 70 41 40 20 22 12.000000000000005 21 20 201 7.0000000000000027 17 5.9999999999999991 335 6.9999999999999991 10.999999999999998 8.9999999999999982 9.9999999999999982 12.999999999999998
leaf_count=414 33 70 41 40 20 22 12 21 20 201 7 17 6 335 7 11 9 10 13
internal_value=2.85195e-10 0.0022035 0.00663643 0.00870887 0.010402 -0.00225925 0.012194 0.00475596 -0.0029974 0.0137663 0.00407 0.00789523 0.00385643 -0.00373358 0.000523795 0.0109782 0.00838683 0.000630752 0.00996374
internal_weight=1309 895 449 379 338 446 298 52 424 246 40 45 28 384 49 32 16 22 20
internal_count=1309 895 449 379 338 446 298 52 424 246 40 45 28 384 49 32 16 22 20
is_linear=0
shrinkage=0.0262989


Tree=11
num_leaves=20
num_cat=0
split_feature=28 30 2 17 8 16 30 17 37 21 7 10 35 8 28 13 20 36 35
split_gain=18.8696 12.6863 23.5349 18.1985 14.8427 7.31805 5.89361 3.69489 3.12116 2.61956 1.71485 1.69272 1.66357 1.55252 1.54625 1.90448 1.29864 1.10223 1.14246
threshold=1.0398612200169557 0.89026261604025569 -0.12785024764724431 -0.95378244369279563 -1.2056128768514245 1.9119528302931745 -0.97721356747927335 -0.88073407935368631 -0.70821693799338759 -0.15255759219431209 1.1367227802123134 -0.074060543928189754 1.0000000180025095e-35 0.33933437014522361 1.2905389634294007 0.038507770608635111 -0.14077710202887525 1.746976271605633 1.2267872615212885
decision_type=2 2 2 2 2 2 2 2 2 2 2 2 2 2 2 2 2 2 2
left_child=1 5 -3 -4 -5 9 -2 -8 -7 -1 -10 -6 13 14 -9 -16 -12 -11 -19
right_child=6 2 3 4 11 8 7 12 10 17 16 -13 -14 -15 15 -17 -18 18 -20
leaf_value=0.0098516452778164947 -0.0037331027881910696 -0.0047707379170315832 -0.0052569280963571437 -0.0052576124601298041 0.00088594885886017656 -0.0029340318303417499 -0.0035935055034715178 -0.0002511087932279473 0.013254639842531645 -0.0047456578405522878 -0.0073129527858744707 0.01511901372780193 0.014157220559702867 0.017420586702764872 -0.0030461603521938188 0.01384739790510759 0.0084823887435540486 -0.0035444588197138913 0.0051574721578135927
leaf_weight=8.9999999999999982 24 187 59 31 5.9999999999999991 22 11.999999999999998 17 27 585 5.9999999999999991 157 76 9.9999999999999982 6.0000000000000027 20 8.9999999999999982 30 15.999999999999998
leaf_count=9 24 187 59 31 6 22 12 17 27 585 6 157 76 10 6 20 9 30 16
internal_value=2.31607e-10 -0.00119916 0.00230393 0.00753303 0.0114228 -0.00338859 0.00831419 0.0103648 0.00509048 -0.0042365 0.00929379 0.0145951 0.0116632 0.00808695 0.00591633 0.00994888 0.00216425 -0.00443744 -0.000517699
internal_weight=1309 1144 440 253 194 704 165 141 64 640 42 163 129 53 43 26 15 631 46
internal_count=1309 1144 440 253 194 704 165 141 64 640 42 163 129 53 43 26 15 631 46
is_linear=0
shrinkage=0.0262989


Tree=12
num_leaves=20
num_cat=0
split_feature=30 35 17 37 37 2 35 4 37 4 16 11 21 34 21 9 14 7 16
split_gain=17.8764 23.0689 13.5646 8.2204 6.1516 4.41351 4.57924 2.90526 1.83788 1.6305 1.75939 1.32863 1.31943 1.26305 1.03766 1.00003 0.881863 0.824537 0.785471
threshold=-0.97721356747927335 -0.31415486862758157 -0.95378244369279563 -0.77423806871827849 1.7015543334651337 -0.14891372459431287 1.2267872615212885 1.6817981366945765 -0.048005630744477785 -0.68581719151950771 -0.62825133953700685 1.8862739975465672 -0.083937448675884166 -1.0000000180025095e-35 -0.15255759219431209 1.0000000180025095e-35 -0.68747961542921876 1.1367227802123134 -1.0000000180025095e-35
decision_type=2 2 2 2 2 2 2 2 2 2 2 2 2 2 2 2 2 2 2
left_child=-1 4 -3 -4 7 6 -5 11 -9 10 15 14 -8 -13 -2 -7 -10 -6 -18
right_child=1 2 3 5 17 9 12 8 16 -11 -12 13 -14 -15 -16 -17 18 -19 -20
leaf_value=-0.0045187453578882583 0.0054931211379872355 -0.0043379320749902346 -0.0021581607141558531 -0.0048173135726235937 0.0046778899973463038 0.008262891696177407 0.014011505183230211 -0.0017419120588219913 0.017058199098029081 0.012005684703270302 0.011502147502186357 -0.0026499424856292805 0.0023117929772892487 0.012244937908428616 -0.0040830267373340272 -0.0029733453233772994 -0.00050465779286476 0.01526176535543332 0.01246261299189059
leaf_weight=414 7.9999999999999991 70 46 27 8.0000000000000018 9.0000000000000018 20.000000000000004 20 7.0000000000000027 228 25 8.9999999999999982 9.9999999999999982 6.9999999999999991 360 13.999999999999998 7.0000000000000009 13.999999999999998 5.9999999999999973
leaf_count=414 8 70 46 27 8 9 20 20 7 228 25 9 10 7 360 14 7 14 6
internal_value=1.64247e-10 0.00209024 0.00629831 0.00826278 -0.00214614 0.00970231 0.00304001 -0.00284969 0.00389531 0.0110782 0.00667277 -0.00355229 0.0101116 0.00386657 -0.00387485 0.00142345 0.00953254 0.0114131 0.00548024
internal_weight=1309 895 449 379 446 333 57 424 40 276 48 384 30 16 368 23 20 22 13
internal_count=1309 895 449 379 446 333 57 424 40 276 48 384 30 16 368 23 20 22 13
is_linear=0
shrinkage=0.0262989


Tree=13
num_leaves=20
num_cat=0
split_feature=28 2 30 17 8 30 16 17 16 37 14 3 28 27 21 36 7 1 28
split_gain=17.2438 11.3987 21.0891 16.4262 14.0339 5.33675 4.43477 3.35918 2.99377 2.45391 2.01818 1.73168 1.7353 1.59347 1.44696 1.28727 2.17563 1.10355 0.830564
threshold=1.0398612200169557 -0.12785024764724431 0.89026261604025569 -0.95378244369279563 -1.2056128768514245 -0.97721356747927335 1.9119528302931745 -0.88073407935368631 1.9119528302931745 -0.70821693799338759 -0.034405412527927448 1.0362730699228826 1.1652000917231782 -0.7883730167737929 -0.15255759219431209 1.746976271605633 0.25847061028173113 -0.8688584724166013 -0.21352749704526966
decision_type=2 2 2 2 2 2 2 2 2 2 2 2 2 2 2 2 2 2 2
left_child=1 8 6 -4 -5 -2 15 -7 14 -10 -8 12 -9 -6 -1 -3 -17 -11 -12
right_child=5 2 3 4 13 7 10 11 9 17 18 -13 -14 -15 -16 16 -18 -19 -20
leaf_value=0.0075515875373857247 -0.0035160888210499746 -0.0045299403237049002 -0.0050129655187384778 -0.00538574396419655 0.00061730735117255934 -0.0034098152526173464 0.012427886243205663 -0.00019231927441981788 -0.0050534421069608378 0.00018712496589894296 -0.0058567310892073086 0.013069654487440092 0.011303919776779466 0.014426764279147335 -0.0044858959071954283 -0.0035312769861892447 0.012038821289502722 0.013667698969737914 0.0054416639221571399
leaf_weight=6.9999999999999991 24 270 59 31 5.9999999999999991 11.999999999999998 17 15.999999999999998 12.999999999999998 6.0000000000000009 9.0000000000000018 92 21 157 517 20.000000000000004 8.9999999999999982 14 8.9999999999999982
leaf_count=7 24 270 59 31 6 12 17 16 13 6 9 92 21 157 517 20 9 14 9
internal_value=1.78318e-10 -0.00114634 0.00141084 0.00713827 0.0108338 0.00794794 -0.00292761 0.00989926 -0.00384124 0.00384169 0.00592967 0.0111373 0.00633258 0.0139184 -0.00432509 -0.00396441 0.00130083 0.00962353 -0.000207533
internal_weight=1309 1144 587 253 194 165 334 141 557 33 35 129 37 163 524 299 29 20 18
internal_count=1309 1144 587 253 194 165 334 141 557 33 35 129 37 163 524 299 29 20 18
is_linear=0
shrinkage=0.0262989


Tree=14
num_leaves=20
num_cat=0
split_feature=28 2 30 17 30 16 17 16 10 37 14 3 28 21 36 7 10 1 29
split_gain=16.3487 10.8071 19.9945 15.5736 5.05974 4.20457 3.18482 2.83838 2.43212 2.32654 1.91342 1.6418 1.68622 1.37185 1.22045 2.0627 1.13256 1.04627 1.03141
threshold=1.0398612200169557 -0.12785024764724431 0.89026261604025569 -0.95378244369279563 -0.97721356747927335 1.9119528302931745 -0.88073407935368631 1.9119528302931745 -0.076000075670324782 -0.70821693799338759 -0.034405412527927448 1.0362730699228826 2.4812582446385147 -0.15255759219431209 1.746976271605633 0.25847061028173113 -0.011716901418405434 -0.8688584724166013 -0.55122479005586766
decision_type=2 2 2 2 2 2 2 2 2 2 2 2 2 2 2 2 2 2 2
left_child=1 7 5 -4 -2 14 -6 13 -5 -9 -7 12 18 -1 -3 -16 -10 -11 -8
right_child=4 2 3 8 6 10 11 9 16 17 -12 -13 -14 -15 15 -17 -18 -19 -20
leaf_value=0.0073529898242778282 -0.0034236196102062958 -0.0044108081283046356 -0.0048811303717639686 -0.005933986037319457 -0.0033201409956446245 0.012101047200938039 0.0092578500444259089 -0.004920542696121368 0.011631225197465962 0.00018220383646223165 -0.00020207560867184011 0.012725937779347265 0.016068648622785439 -0.0043679218063489515 -0.0034384085075085617 0.011722214505233723 0.0035856735075610771 0.013308254618839926 -0.001077126592694715
leaf_weight=6.9999999999999991 24 270 59 5.9999999999999991 11.999999999999998 17 11.000000000000002 12.999999999999998 175 6.0000000000000009 18 92 8.9999999999999982 517 20.000000000000004 8.9999999999999982 12.999999999999998 14 17
leaf_count=7 24 270 59 6 12 17 11 13 175 6 18 92 9 517 20 9 13 14 17
internal_value=2.83698e-10 -0.00111619 0.00137373 0.00695054 0.00773892 -0.00285062 0.00963892 -0.00374022 0.0105488 0.00374066 0.00577373 0.0108444 0.00616604 -0.00421134 -0.00386015 0.00126662 0.0110749 0.00937044 0.00298305
internal_weight=1309 1144 587 253 165 334 141 557 194 33 35 129 37 524 299 29 188 20 28
internal_count=1309 1144 587 253 165 334 141 557 194 33 35 129 37 524 299 29 188 20 28
is_linear=0
shrinkage=0.0262989


Tree=15
num_leaves=20
num_cat=0
split_feature=28 2 30 17 8 30 16 17 16 14 28 3 8 28 1 27 21 36 7
split_gain=15.5001 10.2461 18.9566 14.7653 13.2228 4.79711 3.98633 3.01951 2.69105 1.8141 1.69242 1.55658 1.67085 1.60241 1.45051 1.44412 1.30064 1.1571 1.95563
threshold=1.0398612200169557 -0.12785024764724431 0.89026261604025569 -0.95378244369279563 -1.2056128768514245 -0.97721356747927335 1.9119528302931745 -0.88073407935368631 1.9119528302931745 -0.034405412527927448 -0.84022185557638218 1.0362730699228826 0.37292017986254222 2.4812582446385147 -0.8688584724166013 -0.7883730167737929 -0.15255759219431209 1.746976271605633 0.25847061028173113
decision_type=2 2 2 2 2 2 2 2 2 2 2 2 2 2 2 2 2 2 2
left_child=1 8 6 -4 -5 -2 17 -7 16 -8 -10 12 13 -9 -12 -6 -1 -3 -19
right_child=5 2 3 4 15 7 9 11 10 -11 14 -13 -14 -15 -16 -17 -18 18 -20
leaf_value=0.0071596152346635779 -0.0033335825247383481 -0.0042948087060279451 -0.0047527622968949017 -0.0054724118637229559 0.00060314844157313024 -0.0032328252864193439 0.011782803746445124 -0.00045013834563212377 -0.0047803573292183113 -0.00019676134649361442 -0.0010795451967988052 0.012391260058580714 0.015861262844394933 0.01488245315328718 0.012958263187114386 0.013749555687141269 -0.004253050543455557 -0.0033479822644703894 0.011413934359905927
leaf_weight=6.9999999999999991 24 270 59 31 5.9999999999999991 11.999999999999998 17 22.000000000000004 10.999999999999998 18 8 92 8.9999999999999982 5.9999999999999991 14 157 517 20.000000000000004 8.9999999999999982
leaf_count=7 24 270 59 31 6 12 17 22 11 18 8 92 9 6 14 157 517 20 9
internal_value=3.27407e-10 -0.00108683 0.00133761 0.00676775 0.0102714 0.00753539 -0.00277565 0.00938543 -0.00364186 0.00562189 0.00364229 0.0105592 0.00600388 0.00283542 0.00785361 0.0132656 -0.00410059 -0.00375864 0.00123331
internal_weight=1309 1144 587 253 194 165 334 141 557 35 33 129 37 28 22 163 524 299 29
internal_count=1309 1144 587 253 194 165 334 141 557 35 33 129 37 28 22 163 524 299 29
is_linear=0
shrinkage=0.0262989


Tree=16
num_leaves=20
num_cat=0
split_feature=28 2 30 17 8 30 16 17 16 37 14 3 8 28 19 21 36 7 8
split_gain=14.6956 9.71427 17.9727 13.9988 12.5364 4.54811 3.77942 2.86277 2.55136 2.09906 1.71994 1.47578 1.58412 1.51924 1.38847 1.23313 1.09704 1.85412 1.04301
threshold=1.0398612200169557 -0.12785024764724431 0.89026261604025569 -0.95378244369279563 -1.2056128768514245 -0.97721356747927335 1.9119528302931745 -0.88073407935368631 1.9119528302931745 -0.70821693799338759 -0.034405412527927448 1.0362730699228826 0.37292017986254222 2.4812582446385147 1.3756420277461638 -0.15255759219431209 1.746976271605633 0.25847061028173113 0.33933437014522361
decision_type=2 2 2 2 2 2 2 2 2 2 2 2 2 2 2 2 2 2 2
left_child=1 8 6 -4 -5 -2 16 -7 15 -10 -8 12 13 -9 -6 -1 -3 -18 -11
right_child=5 2 3 4 14 7 10 11 9 18 -12 -13 -14 -15 -16 -17 17 -19 -20
leaf_value=0.0069713258258615862 -0.0032459130998526882 -0.0041818603941638239 -0.004627770005226392 -0.0053284937327607316 0.013391268307972496 -0.0031478057502329986 0.011472929855364777 -0.00043830007014701252 -0.0046803937036416316 0.012825656258094719 -0.00019158676888957293 0.012065384201586591 0.015444130411373838 0.014491062887196975 0.00050065785154041278 -0.0041412002952136732 -0.0032599342429554231 0.011113761529771249 -0.00027994833789504915
leaf_weight=6.9999999999999991 24 270 59 31 157 11.999999999999998 17 22.000000000000004 12.999999999999998 14.000000000000002 18 92 8.9999999999999982 5.9999999999999991 5.9999999999999991 517 20.000000000000004 8.9999999999999982 5.9999999999999991
leaf_count=7 24 270 59 31 157 12 17 22 13 14 18 92 9 6 6 517 20 9 6
internal_value=2.02867e-10 -0.00105825 0.00130243 0.00658977 0.0100013 0.00733722 -0.00270265 0.0091386 -0.00354608 0.0035465 0.00547404 0.0102815 0.00584598 0.00276086 0.0129168 -0.00399275 -0.00365979 0.00120087 0.00889398
internal_weight=1309 1144 587 253 194 165 334 141 557 33 35 129 37 28 163 524 299 29 20
internal_count=1309 1144 587 253 194 165 334 141 557 33 35 129 37 28 163 524 299 29 20
is_linear=0
shrinkage=0.0262989


Tree=17
num_leaves=20
num_cat=0
split_feature=28 30 35 17 8 37 2 27 37 3 30 4 15 20 14 9 6 23 11
split_gain=13.9725 9.81264 16.3057 9.36374 8.98897 7.52986 4.56926 3.10713 3.01032 2.21146 1.60913 1.29788 1.32015 1.86221 1.21073 1.00714 0.91119 0.696365 1.36205
threshold=1.5412167068418456 -0.97721356747927335 -0.31415486862758157 -0.95378244369279563 -1.2056128768514245 -0.90628033016806053 -0.12785024764724431 -0.80093496991523994 1.7015543334651337 1.0362730699228826 -0.51034452159939103 1.6817981366945765 0.084867461728789478 0.37301076170750191 -0.25209681349502455 0.99191699672987432 1.2958558990865279 0.3339047471325588 -0.28683027935670519
decision_type=2 2 2 2 2 2 2 2 2 2 2 2 2 2 2 2 2 2 2
left_child=1 -1 8 -4 -5 17 9 -8 11 -7 -9 12 -3 16 -13 -2 -14 -6 -19
right_child=15 2 3 4 5 6 7 10 -10 -11 -12 14 13 -15 -16 -17 -18 18 -20
leaf_value=-0.0039640369588443136 0.012361856918907765 -0.004261976151873818 -0.0041478284362735842 -0.0049950925372689112 -0.005019078401544327 -0.0021808846898216288 -0.0016600171630579692 0.0005520100582680832 0.012401859307478995 0.010872701791287265 0.012586244529597886 0.0082315105852937744 -0.0031181821411786739 0.0086390167806815413 -0.0018915168363644902 0.0024646315775533815 0.0076000770383994817 0.011727875291177822 -0.0048480087877890493
leaf_weight=413 64 291 68 41 26 29 11.999999999999998 7.9999999999999991 8.9999999999999982 12.999999999999998 195 12.999999999999998 64 12.999999999999998 22 7.9999999999999991 5.9999999999999991 6 7.9999999999999982
leaf_count=413 64 291 68 41 26 29 12 8 9 13 195 13 64 13 22 8 6 6 8
internal_value=3.3549e-10 -0.000655518 0.00100276 0.00475652 0.00654793 0.00814142 0.00979344 0.0113433 -0.00264325 0.00185951 0.012112 -0.00297431 -0.00342752 -0.000501876 0.00186847 0.0112622 -0.00219947 -0.00247282 0.00225595
internal_weight=1309 1237 824 406 338 297 257 215 418 42 203 409 374 83 35 72 70 40 14
internal_count=1309 1237 824 406 338 297 257 215 418 42 203 409 374 83 35 72 70 40 14
is_linear=0
shrinkage=0.0262989


Tree=18
num_leaves=20
num_cat=0
split_feature=28 30 31 17 8 16 30 17 37 21 7 3 8 28 20 25 15 36 7
split_gain=13.2681 8.6269 14.841 12.4314 10.1951 5.20668 4.09812 2.63327 2.35444 1.96679 1.5779 1.34486 1.44504 1.39273 1.10784 0.944413 0.892591 0.80779 0.927288
threshold=1.0398612200169557 0.89026261604025569 -0.15262531338773386 -0.95378244369279563 -1.2056128768514245 1.9119528302931745 -0.97721356747927335 -0.88073407935368631 -0.70821693799338759 -0.15255759219431209 1.1367227802123134 1.0362730699228826 0.37292017986254222 2.4812582446385147 -0.14077710202887525 -0.072835021623880794 -0.80177244148043003 1.746976271605633 0.25847061028173113
decision_type=2 2 2 2 2 2 2 2 2 2 2 2 2 2 2 2 2 2 2
left_child=1 5 -3 -4 -5 9 -2 -8 -7 -1 -10 12 13 15 -12 -9 -6 -11 -19
right_child=6 2 3 4 16 8 7 11 10 17 14 -13 -14 -15 -16 -17 -18 18 -20
leaf_value=0.0086810516894786603 -0.0030741896505803159 -0.0037347803246602688 -0.0044197247507976765 -0.0050879568043974152 0.0026393133975924511 -0.0026284886246492087 -0.0031019235024815758 0.0045081040581424689 0.011791159661128073 -0.003964194736813002 -0.0076005541553072833 0.011480753992367553 0.014710781988334108 0.01382824384934791 0.0069883832823441436 -0.0064349406795071286 0.012237439968243528 -0.0034770104168631217 0.0041063966421031398
leaf_weight=8.9999999999999982 24 187 60 29 6.9999999999999991 22 11.999999999999998 12.000000000000002 27 585 5.9999999999999991 92 8.9999999999999982 5.9999999999999991 8.9999999999999982 10.000000000000002 157 27 19
leaf_count=9 24 187 60 29 7 22 12 12 27 585 6 92 9 6 9 10 157 27 19
internal_value=3.19923e-10 -0.00100554 0.00188322 0.00603565 0.00928602 -0.00281102 0.00697176 0.00868171 0.00434104 -0.00352622 0.00799175 0.00977786 0.00554364 0.00259705 0.00115281 -0.000466008 0.0118278 -0.00370034 -0.000344733
internal_weight=1309 1144 440 253 193 704 165 141 64 640 42 129 37 28 15 22 164 631 46
internal_count=1309 1144 440 253 193 704 165 141 64 640 42 129 37 28 15 22 164 631 46
is_linear=0
shrinkage=0.0262989


Tree=19
num_leaves=20
num_cat=0
split_feature=28 30 35 17 8 37 2 16 37 9 3 16 28 34 11 9 11 34 23
split_gain=12.6072 8.82214 14.7788 8.44605 8.13493 6.76625 4.12006 3.07415 2.7467 2.11153 2.03453 1.23504 1.3778 1.45925 1.12415 0.937926 0.855294 0.821618 0.656006
threshold=1.5412167068418456 -0.97721356747927335 -0.31415486862758157 -0.95378244369279563 -1.2056128768514245 -0.90628033016806053 -0.12785024764724431 -0.62825133953700685 1.7015543334651337 1.0000000180025095e-35 1.0362730699228826 1.9119528302931745 -0.52687467631082585 -0.22756981024709702 1.8862739975465672 0.99191699672987432 -0.26954025981363378 -1.0000000180025095e-35 0.3339047471325588
decision_type=2 2 2 2 2 2 2 2 2 2 2 2 2 2 2 2 2 2 2
left_child=1 -1 8 -4 -5 18 10 9 11 16 -7 14 -13 -14 -3 -2 -8 -16 -6
right_child=15 2 3 4 5 6 7 -9 -10 -11 -12 12 13 -15 17 -17 -18 -19 -20
leaf_value=-0.0037597639383979173 0.011759044569324209 -0.0035744698698041179 -0.0039333869301017236 -0.0047562506944668452 -0.0047923848164151614 -0.0021025882468356815 0.002803476799106564 0.012235467863370215 0.0118498139877683 -0.0028987323762241467 0.010417925459632981 -0.0034827586042958381 0.015329116369971947 0.00025984906019070196 -0.0019835331706917082 0.0022079579918921925 0.013732661213655984 0.010353852745919141 0.0022686749787085353
leaf_weight=413 64 359 68 41 26 29 8.0000000000000018 177 8.9999999999999982 17 12.999999999999998 17 8.0000000000000018 9.9999999999999982 7.9999999999999991 7.9999999999999991 12.999999999999998 6.9999999999999991 13.999999999999998
leaf_count=413 64 359 68 41 26 29 8 177 9 17 13 17 8 10 8 8 13 7 14
internal_value=3.53453e-10 -0.00062267 0.000949685 0.00452338 0.00622474 0.00774064 0.00930665 0.0107784 -0.00252142 0.00399142 0.00177281 -0.00283766 0.00188642 0.00695731 -0.00327975 0.0106978 0.00956917 0.00377392 -0.00232101
internal_weight=1309 1237 824 406 338 297 257 215 418 38 42 409 35 18 374 72 21 15 40
internal_count=1309 1237 824 406 338 297 257 215 418 38 42 409 35 18 374 72 21 15 40
is_linear=0
shrinkage=0.0262989


Tree=20
num_leaves=20
num_cat=0
split_feature=28 2 30 17 8 4 16 28 16 37 14 29 10 9 21 8 36 7 27
split_gain=12.0134 7.91129 14.6216 11.4264 10.2168 3.7183 3.1172 2.71661 2.11819 1.7862 1.49975 1.20687 1.19777 1.13844 1.09387 0.970276 0.906546 1.59322 0.787808
threshold=1.0398612200169557 -0.12785024764724431 0.89026261604025569 -0.95378244369279563 -1.2056128768514245 1.6817981366945765 1.9119528302931745 1.5412167068418456 1.9119528302931745 -0.70821693799338759 -0.034405412527927448 -0.55122479005586766 -0.074060543928189754 0.99191699672987432 -0.15255759219431209 0.33933437014522361 1.746976271605633 0.25847061028173113 -0.19796121912578832
decision_type=2 2 2 2 2 2 2 2 2 2 2 2 2 2 2 2 2 2 2
left_child=1 8 6 -4 -5 7 16 11 14 -10 -8 18 -6 -9 -1 -11 -3 -18 -2
right_child=5 2 3 4 12 -7 10 13 9 15 -12 -13 -14 -15 -16 -17 17 -19 -20
leaf_value=0.0067175047980487113 0.001570129934200653 -0.0037827347025678037 -0.0041920395138311511 -0.0048143187853359219 0.00012472290757570471 0.011469129244100944 0.010588715519822097 0.011079305806197476 -0.0043284865153192806 0.011985559441780619 -0.00030358135816842881 -0.0025808848681756827 0.012097428783853037 -0.0014358313528573374 -0.0037487415431626402 -0.00065481096079305268 -0.0030246654839445101 0.010299395645702435 0.012375594708192713
leaf_weight=6.9999999999999991 14.000000000000002 270 59 31 5.9999999999999991 66 17 31 12.999999999999998 14.000000000000002 18 41 157 5.9999999999999991 517 5.9999999999999991 20.000000000000004 8.9999999999999982 6.9999999999999991
leaf_count=7 14 270 59 31 6 66 17 31 13 14 18 41 157 6 517 6 20 9 7
internal_value=3.63931e-10 -0.000956819 0.00117356 0.00594257 0.00902475 0.00663395 -0.0024389 0.00341049 -0.00320194 0.00326057 0.00498697 4.50787e-05 0.0116567 0.00904982 -0.00360893 0.00819345 -0.00330815 0.00111039 0.00517196
internal_weight=1309 1144 587 253 194 165 334 99 557 33 35 62 163 37 524 20 299 29 21
internal_count=1309 1144 587 253 194 165 334 99 557 33 35 62 163 37 524 20 299 29 21
is_linear=0
shrinkage=0.0262989


Tree=21
num_leaves=20
num_cat=0
split_feature=28 2 30 17 8 30 16 17 16 14 28 1 27 35 8 27 28 21 9
split_gain=11.3899 7.50064 13.8627 10.8333 9.6865 3.55543 2.95539 2.37038 2.00825 1.4219 1.29328 1.25261 1.14917 1.14822 1.16275 1.1087 1.09938 1.03709 0.859589
threshold=1.0398612200169557 -0.12785024764724431 0.89026261604025569 -0.95378244369279563 -1.2056128768514245 -0.97721356747927335 1.9119528302931745 -0.88073407935368631 1.9119528302931745 -0.034405412527927448 -0.84022185557638218 -0.8688584724166013 -0.7883730167737929 1.0000000180025095e-35 0.33933437014522361 0.42385546137583446 1.2905389634294007 -0.15255759219431209 -2.3202045459802809
decision_type=2 2 2 2 2 2 2 2 2 2 2 2 2 2 2 2 2 2 2
left_child=1 8 6 -4 -5 -2 18 -7 17 -8 -10 -12 -6 14 15 16 -9 -1 -3
right_child=5 2 3 4 12 7 9 13 10 -11 11 -13 -14 -15 -16 -17 -18 -19 -20
leaf_value=0.0065408423225775695 -0.0028976964270749374 0.0058861298556327525 -0.0040817937013475454 -0.0046877077505526723 5.4568760849057243e-05 -0.0031277753372311121 0.010310244538455327 -0.00019132797288233741 -0.00418794767724316 -0.00029559758792471502 -0.001445221159172486 0.011599866763595828 0.011781835792319941 0.01116416765970382 0.014198522743826528 -0.0045902462090123093 0.0096281773735527581 -0.0036501540700820878 -0.003439475204715129
leaf_weight=6.9999999999999991 24 6.9999999999999991 59 31 5.9999999999999991 11.999999999999998 17 11.999999999999998 10.999999999999998 18 8 14 157 76 9.9999999999999982 7.9999999999999991 23 517 292
leaf_count=7 24 7 59 31 6 12 17 12 11 18 8 14 157 76 10 8 23 517 292
internal_value=3.57644e-10 -0.000931656 0.00114269 0.00578629 0.00878741 0.00645948 -0.00237476 0.00805219 -0.00311773 0.00485581 0.00317482 0.0068562 0.0113502 0.00909219 0.00612105 0.00424256 0.00626149 -0.00351401 -0.00322115
internal_weight=1309 1144 587 253 194 165 334 141 557 35 33 22 163 129 53 43 35 524 299
internal_count=1309 1144 587 253 194 165 334 141 557 35 33 22 163 129 53 43 35 524 299
is_linear=0
shrinkage=0.0262989


Tree=22
num_leaves=20
num_cat=0
split_feature=28 2 17 8 12 4 28 21 20 4 37 32 16 29 27 31 17 16 17
split_gain=10.7987 7.11131 4.60559 4.45729 4.07355 3.3772 2.4688 1.90828 1.74622 1.70819 1.67453 1.13181 1.12459 1.10542 1.09669 1.00486 1.00287 0.932289 0.857061
threshold=1.0398612200169557 -0.12785024764724431 -0.95378244369279563 -1.2056128768514245 -1.1209637651449702 1.6817981366945765 1.5412167068418456 -0.15255759219431209 -0.16964142369337359 1.6817981366945765 -0.90628033016806053 0.30947400023041788 1.0000000180025095e-35 -0.55122479005586766 -0.80093496991523994 1.0542729734402598 -0.073143829160195753 1.9119528302931745 0.32912945501281793
decision_type=2 2 2 2 2 2 2 2 2 2 2 2 2 2 2 2 2 2 2
left_child=1 7 -3 -4 12 6 13 -1 -8 -9 15 16 -5 -2 -12 -6 -11 -16 -18
right_child=5 2 3 4 10 -7 8 9 -10 11 14 -13 -14 -15 17 -17 18 -19 -20
leaf_value=0.0083490089123541 0.0049159907957128917 -0.0038496248966810227 -0.0040868688523820447 -0.0037632846220691306 -0.0043935632134846471 0.010897670954604165 0.012309697891171659 -0.0036281132954823995 -0.00019012908402325673 -0.0044987537586501664 -0.0034038454031156571 0.012774211349716564 0.002602984819291772 -0.0025038635698390104 0.0051170570044215772 0.0078099703346048068 0.012801797720284286 0.012074810220626226 -0.00034699420887468864
leaf_weight=9.9999999999999982 21 106 67 61 21.000000000000004 66 26 512 10.999999999999998 15.000000000000002 9.9999999999999982 5.9999999999999991 28 41 274 5.9999999999999991 5.9999999999999991 13.999999999999998 7.9999999999999991
leaf_count=10 21 106 67 61 21 66 26 512 11 15 10 6 28 41 274 6 6 14 8
internal_value=3.60638e-10 -0.000907154 0.00111264 0.0022062 0.00322464 0.0062896 0.00321756 -0.00303574 0.00859353 -0.00324387 0.00458978 0.00237712 -0.00176041 9.31342e-06 0.005158 -0.00168166 0.000225987 0.00545528 0.00528821
internal_weight=1309 1144 587 481 414 165 99 557 37 547 325 35 89 62 298 27 29 288 14
internal_count=1309 1144 587 481 414 165 99 557 37 547 325 35 89 62 298 27 29 288 14
is_linear=0
shrinkage=0.0262989


Tree=23
num_leaves=20
num_cat=0
split_feature=30 35 17 8 37 28 2 35 16 28 37 13 6 21 21 4 11 34 27
split_gain=10.4706 13.6569 7.79489 7.54685 6.21317 4.30599 2.60535 2.6374 1.80852 1.7919 1.43016 1.11071 0.964489 0.959762 0.941425 0.755232 1.13822 0.948655 0.730785
threshold=-0.97721356747927335 -0.31415486862758157 -0.95378244369279563 -1.2056128768514245 -0.90628033016806053 1.2905389634294007 -0.12785024764724431 1.2267872615212885 -0.62825133953700685 0.41316686148584286 1.7015543334651337 0.038507770608635111 -0.37003726697646805 -0.15255759219431209 -0.083937448675884166 0.49799047258753421 1.8862739975465672 -1.0000000180025095e-35 -0.7883730167737929
decision_type=2 2 2 2 2 2 2 2 2 2 2 2 2 2 2 2 2 2 2
left_child=-1 5 -3 -4 -5 10 7 -6 9 12 13 -7 -8 -2 -9 16 -15 -18 -11
right_child=1 2 3 4 6 11 8 14 -10 18 -12 -13 -14 15 -16 -17 17 -19 -20
leaf_value=-0.0034583091141661233 0.0064035819368678847 -0.0032253880788596324 -0.0043286598803459007 -0.0021130818955590429 -0.0039146935999501455 -0.00094028160426579827 -0.0061701561926559281 0.011524089913572972 0.011194982736604584 0.0016544226111223027 0.01031978592745709 0.0097277839437211779 0.0051147617284078789 -0.0034828672183031266 0.0020268165500531374 0.00062927005889306655 -0.001760915859588417 0.012072644214148274 0.01196045366077189
leaf_weight=414 7.9999999999999991 70 41 40 20 8.9999999999999982 10.000000000000002 21 196 6.0000000000000027 5.9999999999999991 27 10.999999999999998 342 10.999999999999998 40 7.9999999999999991 5.9999999999999991 23
leaf_count=414 8 70 41 40 20 9 10 21 196 6 6 27 11 342 11 40 8 6 23
internal_value=4.07041e-10 0.00159971 0.00483747 0.00632666 0.00761917 -0.00165983 0.00892551 0.00357706 0.0100561 0.00559156 -0.00242554 0.00706077 -0.000259009 -0.00261483 0.00825941 -0.00279702 -0.003182 0.00416776 0.00982817
internal_weight=1309 895 449 379 338 446 298 52 246 50 410 36 21 404 32 396 356 14 29
internal_count=1309 895 449 379 338 446 298 52 246 50 410 36 21 404 32 396 356 14 29
is_linear=0
shrinkage=0.0262989


Tree=24
num_leaves=20
num_cat=0
split_feature=30 35 17 8 28 28 2 16 4 16 28 34 12 36 28 13 23 11 2
split_gain=9.9271 12.948 7.39029 7.15512 4.89537 4.08248 2.27608 2.00525 1.28883 1.27709 1.42282 1.40851 1.24942 1.08627 1.13959 1.05306 1.03542 0.869297 0.826393
threshold=-0.97721356747927335 -0.31415486862758157 -0.95378244369279563 -1.2056128768514245 -0.77755241972327072 1.2905389634294007 -0.50699283269447315 -0.62825133953700685 -0.68581719151950771 1.9119528302931745 -0.52687467631082585 -0.22756981024709702 1.1330309007671477 -0.65748096590181748 1.5412167068418456 0.038507770608635111 -0.28976327002199825 1.8862739975465672 -0.14891372459431287
decision_type=2 2 2 2 2 2 2 2 2 2 2 2 2 2 2 2 2 2 2
left_child=-1 5 -3 -4 7 9 12 -5 13 17 -11 -12 -6 14 -8 -7 -9 -2 -10
right_child=1 2 3 4 6 15 8 16 18 10 11 -13 -14 -15 -16 -17 -18 -19 -20
leaf_value=-0.0033673596088254374 -0.0030839112700785909 -0.003140563979410997 -0.0042148211317595951 -0.0039224235727091565 -0.0040545912708399032 -0.00091555336329367254 -0.00075172224606510224 -0.0012358503513738052 0.0042595501694465574 -0.0032952360226832489 0.014032299976147584 7.4009105678813535e-05 0.0081165568402792945 0.009529371093017474 0.012244182927948474 0.0094719545177868736 0.011491338386048213 0.0033784011306626917 0.010876733510407339
leaf_weight=414 358 70 41 33 14 8.9999999999999982 21.000000000000004 7.0000000000000027 13.999999999999998 17 10.000000000000002 9.9999999999999982 10 28 5.9999999999999991 27 11.999999999999998 14.999999999999998 193
leaf_count=414 358 70 41 33 14 9 21 7 14 17 10 10 10 28 6 27 12 15 193
internal_value=3.89378e-10 0.00155764 0.00471025 0.00616027 0.00741879 -0.00161618 0.00876834 -3.74557e-06 0.00947842 -0.00236176 0.00229849 0.00705316 0.00101672 0.00590003 0.00213626 0.00687508 0.00680238 -0.00282403 0.0104292
internal_weight=1309 895 449 379 338 446 286 52 262 410 37 20 24 55 27 36 19 373 207
internal_count=1309 895 449 379 338 446 286 52 262 410 37 20 24 55 27 36 19 373 207
is_linear=0
shrinkage=0.0262989


Tree=25
num_leaves=20
num_cat=0
split_feature=30 35 17 8 28 28 2 16 4 16 28 34 27 13 23 28 11 28 2
split_gain=9.41182 12.2759 7.00669 6.78373 4.64127 3.87058 2.15794 1.90117 1.22193 1.2108 1.34897 1.3354 1.0365 0.9984 0.981677 0.855326 0.824175 0.82147 0.783498
threshold=-0.97721356747927335 -0.31415486862758157 -0.95378244369279563 -1.2056128768514245 -0.77755241972327072 1.2905389634294007 -0.50699283269447315 -0.62825133953700685 -0.68581719151950771 1.9119528302931745 -0.52687467631082585 -0.22756981024709702 -0.62506762593498333 0.038507770608635111 -0.28976327002199825 -0.46420524045771455 1.8862739975465672 1.0398612200169557 -0.14891372459431287
decision_type=2 2 2 2 2 2 2 2 2 2 2 2 2 2 2 2 2 2 2
left_child=-1 5 -3 -4 7 9 17 -5 12 16 -11 -12 -8 -7 -9 -14 -2 -6 -10
right_child=1 2 3 4 6 13 8 14 18 10 11 -13 15 -15 -16 -17 -18 -19 -20
leaf_value=-0.0032788017977397185 -0.0030028079675190902 -0.0030579709450052096 -0.0041039761712432172 -0.0038192682350975593 -0.0021321521836756134 -0.00089147529945207064 -0.0024171632234190653 -0.0012033491186184656 0.0041475292214036407 -0.0032085751702249921 0.013663267471124077 7.2062466648832832e-05 0.00053761454995618341 0.0092228531325408824 0.011189129886250832 0.0092318290221971907 0.0032895533184958731 0.0085723016861529566 0.01059068802669786
leaf_weight=414 358 70 41 33 17.000000000000004 8.9999999999999982 8.9999999999999982 7.0000000000000027 13.999999999999998 17 10.000000000000002 9.9999999999999982 9.9999999999999982 27 11.999999999999998 36 14.999999999999998 6.9999999999999991 193
leaf_count=414 358 70 41 33 17 9 9 7 14 17 10 10 10 27 12 36 15 7 193
internal_value=4.4117e-10 0.00151668 0.00458638 0.00599827 0.00722369 -0.00157368 0.00853775 -3.64692e-06 0.00922914 -0.00229964 0.00223804 0.00686767 0.00574486 0.00669427 0.00662348 0.00734178 -0.00274976 0.000989984 0.0101549
internal_weight=1309 895 449 379 338 446 286 52 262 410 37 20 55 36 19 46 373 24 207
internal_count=1309 895 449 379 338 446 286 52 262 410 37 20 55 36 19 46 373 24 207
is_linear=0
shrinkage=0.0262989


Tree=26
num_leaves=20
num_cat=0
split_feature=28 35 17 8 37 37 2 35 13 27 16 16 6 23 15 17 9 20 23
split_gain=8.92587 5.41904 4.2718 4.73259 2.19711 2.0345 1.85134 2.02991 1.16969 1.05135 1.28445 0.958194 1.08849 0.969833 0.790384 1.00838 0.769326 0.693503 0.59502
threshold=1.5412167068418456 -0.31415486862758157 -0.95378244369279563 -1.2056128768514245 1.7015543334651337 -0.90628033016806053 -0.12785024764724431 1.2267872615212885 0.73485210366593756 -0.80093496991523994 1.9119528302931745 1.9119528302931745 -0.057182758750792421 -0.39181803646547153 2.5925956449913854 0.12723189246444552 0.99191699672987432 -0.22614211058008385 -0.98334126728131088
decision_type=2 2 2 2 2 2 2 2 2 2 2 2 2 2 2 2 2 2 2
left_child=1 4 -3 -4 11 -5 7 -7 -9 17 18 14 13 -13 -1 -16 -2 -8 -11
right_child=16 2 3 5 -6 6 9 8 -10 10 -12 12 -14 -15 15 -17 -18 -19 -20
leaf_value=-0.0030267780449639756 0.0099625459300626586 -0.0032952774466795671 -0.0036519132270074967 -0.0021278675572922834 0.010506635382431019 -0.0035295923485019589 -0.0068826264334540099 0.012897064721485474 0.00071857557093982173 -0.00012456932040727856 0.010583574426587371 0.0055985554693700817 0.0089584086223460473 -0.0051927463406792936 0.010319557810439882 -0.0043729715933810559 0.0013123969172244723 0.0046601281108961373 0.0046831178923382533
leaf_weight=520 64 124 83 45 8.9999999999999982 44 8.9999999999999982 10.000000000000002 11.999999999999998 19 25 9.0000000000000018 9.9999999999999982 15.999999999999998 6.9999999999999982 6 7.9999999999999991 5.9999999999999991 283
leaf_count=520 64 124 83 45 9 44 9 10 12 19 25 9 10 16 7 6 8 6 283
internal_value=3.96862e-10 -0.00052393 0.0011036 0.00212125 -0.00238558 0.00317903 0.00376435 -0.000268308 0.00625426 0.00454258 0.00485488 -0.00258986 0.00162535 -0.00130788 -0.00286665 0.00353839 0.00900142 -0.00226552 0.00438065
internal_weight=1309 1237 660 536 577 453 408 66 22 342 327 568 35 25 533 13 72 15 302
internal_count=1309 1237 660 536 577 453 408 66 22 342 327 568 35 25 533 13 72 15 302
is_linear=0
shrinkage=0.0262989


Tree=27
num_leaves=20
num_cat=0
split_feature=30 35 17 37 28 37 2 35 4 15 20 14 4 16 13 37 13 6 23
split_gain=8.79935 11.2515 6.40048 3.94887 3.47263 2.4804 2.11877 2.40801 1.06201 1.02045 1.24248 0.917153 0.86222 1.06756 0.81829 1.34899 0.812168 0.788514 0.577541
threshold=-0.97721356747927335 -0.31415486862758157 -0.95378244369279563 -0.90628033016806053 1.8545638861074019 1.7015543334651337 -0.14891372459431287 1.2267872615212885 1.6817981366945765 0.084867461728789478 0.37301076170750191 0.39009281935791201 -0.68581719151950771 -0.62825133953700685 0.73485210366593756 0.94231133012888735 -0.27982106736041751 1.2958558990865279 0.3339047471325588
decision_type=2 2 2 2 2 2 2 2 2 2 2 2 2 2 2 2 2 2 2
left_child=-1 4 -3 18 5 8 7 -5 9 -2 17 -10 13 16 -9 -16 -8 -11 -4
right_child=1 2 3 6 -6 -7 12 14 11 10 -12 -13 -14 -15 15 -17 -18 -19 -20
leaf_value=-0.0031703241666764317 -0.0034712899833328611 -0.0029008496324733277 -0.0042004488668572976 -0.0034319259194788344 0.0089474743302875234 0.010317629798515358 -0.0064270499809854333 0.011934961572594091 0.0057351979771775976 -0.0024116976249655641 0.0072961104330171722 -0.0027124108580776495 0.0083011810302917061 0.0081908436623018329 -0.0035057633012664036 0.011887489792517018 0.0039490132390480517 0.0075589739229739474 0.0023817944309489137
leaf_weight=414 295 70 27 28 21 10.999999999999998 8.0000000000000018 14.000000000000002 20 64 12.999999999999998 15.999999999999998 232 25 8.9999999999999982 6.9999999999999991 14.999999999999998 5.9999999999999991 13.999999999999998
leaf_count=414 295 70 27 28 21 11 8 14 20 64 13 16 232 25 9 7 15 6 14
internal_value=4.05245e-10 0.0014665 0.00440533 0.00575476 -0.00149211 -0.00200794 0.00668971 0.00211476 -0.00233544 -0.0027465 -0.000170424 0.00198071 0.00763737 0.00442896 0.00729167 0.00322879 0.000339946 -0.00155707 -0.00195285
internal_weight=1309 895 449 379 446 425 338 58 414 378 83 36 280 48 30 16 23 70 41
internal_count=1309 895 449 379 446 425 338 58 414 378 83 36 280 48 30 16 23 70 41
is_linear=0
shrinkage=0.0262989


Tree=28
num_leaves=20
num_cat=0
split_feature=30 35 17 8 37 28 37 2 35 16 28 16 28 22 6 21 15 8 34
split_gain=8.34261 10.6675 6.06825 6.18461 4.90473 3.29237 2.35166 2.10795 2.14754 1.5043 1.52113 1.01122 1.16319 1.19495 0.847123 0.819052 0.709226 1.00751 1.18962
threshold=-0.97721356747927335 -0.31415486862758157 -0.95378244369279563 -1.2056128768514245 -0.90628033016806053 1.8545638861074019 1.7015543334651337 -0.12785024764724431 1.2267872615212885 -0.62825133953700685 0.41316686148584286 1.9119528302931745 -0.52687467631082585 0.9051823430815763 -0.37003726697646805 -0.083937448675884166 0.061198484067037727 -0.097281156179916048 -0.096165565716594612
decision_type=2 2 2 2 2 2 2 2 2 2 2 2 2 2 2 2 2 2 2
left_child=-1 5 -3 -4 -5 6 11 8 -6 10 14 16 -13 -14 -9 -10 -2 -18 -19
right_child=1 2 3 4 7 -7 -8 9 15 -11 -12 12 13 -15 -16 -17 17 18 -20
leaf_value=-0.0030869482820326099 -0.0033072902665072742 -0.0028245606165787961 -0.0040424219208887975 -0.0018734987412756057 -0.0036370399698031934 0.0087121660065002261 0.010046288341821924 -0.0060509321741916708 0.010393562175667628 0.0099897820295189212 0.0087827485011792612 -0.003059984725981534 0.012033694377904832 -0.0013244710200130713 0.0045251055528362132 0.0015350304308319289 -0.0038639727633063645 -0.00079974895622800745 0.008015389659758048
leaf_weight=414 289 70 41 40 20 21 10.999999999999998 10.000000000000002 21 196 29 17 11.000000000000002 7.9999999999999991 10.999999999999998 10.999999999999998 38 36 14.999999999999998
leaf_count=414 289 70 41 40 20 21 11 10 21 196 29 17 11 8 11 11 38 36 15
internal_value=3.94467e-10 0.00142793 0.00428948 0.00560341 0.00677347 -0.00145286 -0.00195514 0.00793414 0.00312326 0.00895107 0.00487933 -0.00227402 0.00193764 0.00640921 -0.000511103 0.00734844 -0.00267513 -0.000622371 0.00179294
internal_weight=1309 895 449 379 338 446 425 298 52 246 50 414 36 19 21 32 378 89 51
internal_count=1309 895 449 379 338 446 425 298 52 246 50 414 36 19 21 32 378 89 51
is_linear=0
shrinkage=0.0262989


Tree=29
num_leaves=20
num_cat=0
split_feature=30 35 17 8 37 28 37 2 35 4 4 2 37 15 20 14 21 6 25
split_gain=7.90958 10.1138 5.75327 5.86359 4.65014 3.12148 2.22959 1.99853 2.03607 1.258 0.97715 0.966199 1.26267 0.923832 1.1256 0.870104 0.776538 0.735431 0.594309
threshold=-0.97721356747927335 -0.31415486862758157 -0.95378244369279563 -1.2056128768514245 -0.90628033016806053 1.8545638861074019 1.7015543334651337 -0.12785024764724431 1.2267872615212885 -0.68581719151950771 1.6817981366945765 0.35660972213532555 0.61220567650443225 0.084867461728789478 0.37301076170750191 -0.25209681349502455 -0.083937448675884166 1.2958558990865279 -0.061542785935304593
decision_type=2 2 2 2 2 2 2 2 2 2 2 2 2 2 2 2 2 2 2
left_child=-1 5 -3 -4 -5 6 10 8 -6 11 13 12 -9 -2 17 18 -10 -15 -12
right_child=1 2 3 4 7 -7 -8 9 16 -11 15 -13 -14 14 -16 -17 -18 -19 -20
leaf_value=-0.0030057650872464541 -0.0032981374861550321 -0.0027502779401845021 -0.0039361109312502389 -0.0018242279633957699 -0.0035413900315925087 0.0084830462276582683 0.0097820828596853343 -0.0049506715559927677 0.010120223602133651 0.0096055222669133161 0.0021582616412512989 0.0085098650343753291 0.0077025844603286061 -0.0023025950442861422 0.0069492732765477185 -0.0011479249552150178 0.0014946608592962449 0.0073266183154435741 0.013437762815902947
leaf_weight=414 295 70 41 40 20 21 10.999999999999998 12.000000000000002 21 201 7 23 9.9999999999999982 64 12.999999999999998 23 10.999999999999998 5.9999999999999991 5.9999999999999982
leaf_count=414 295 70 41 40 20 21 11 12 21 201 7 23 10 64 13 23 11 6 6
internal_value=4.00904e-10 0.00139038 0.00417667 0.00545605 0.00659534 -0.00141466 -0.00190372 0.00772548 0.00304112 0.00871567 -0.00221421 0.004741 0.00080081 -0.00260851 -0.000157417 0.0019259 0.00715519 -0.00147723 0.0073642
internal_weight=1309 895 449 379 338 446 425 298 52 246 414 45 22 378 83 36 32 70 13
internal_count=1309 895 449 379 338 446 425 298 52 246 414 45 22 378 83 36 32 70 13
is_linear=0
shrinkage=0.0262989


Tree=30
num_leaves=20
num_cat=0
split_feature=30 35 8 28 28 2 4 28 15 20 22 12 14 8 27 8 36 2 9
split_gain=7.49902 9.58882 4.87667 3.07996 2.95946 1.65712 1.29828 1.17579 1.11069 1.11191 1.07898 1.04985 0.947677 0.823503 0.814135 0.702468 0.659896 0.719927 0.7111
threshold=-0.97721356747927335 -0.31415486862758157 -1.2056128768514245 -0.65221354801704834 1.8545638861074019 -0.59124674048274628 1.6817981366945765 0.41316686148584286 0.061198484067037727 0.37301076170750191 0.32020830381336651 1.1330309007671477 -0.25209681349502455 -0.097281156179916048 -0.64265436033300904 -0.097281156179916048 1.0000000180025095e-35 0.10384799877050649 -1.1512204720825794
decision_type=2 2 2 2 2 2 2 2 2 2 2 2 2 2 2 2 2 2 2
left_child=-1 4 -3 10 6 11 8 14 -2 -10 -4 -5 -8 -12 -7 -14 17 -16 -18
right_child=1 2 3 5 -6 7 12 -9 9 -11 13 -13 15 -15 16 -17 18 -19 -20
leaf_value=-0.0029267168547568653 -0.0031225177021923368 -0.0036755960628145124 -0.0030930138153492472 -0.0035506939761633365 0.0082599520076701433 -0.0031821485234595735 0.0078587054350308071 0.0082590188715960366 -0.0010336950589717232 0.0070155324700337147 -0.0037094520837907636 0.0069767255047959434 0.0046056997704717563 0.0060863767578653799 -0.00080871956557698721 -0.0041440271959518058 0.00018474664864130173 0.0052963116111245595 0.0080649889448834635
leaf_weight=414 292 50 37 19 21 7.9999999999999991 14.999999999999998 155 78 13.999999999999998 8.0000000000000018 10.000000000000002 11 23 19 15 8.9999999999999982 45 66
leaf_count=414 292 50 37 19 21 8 15 155 78 14 8 10 11 23 19 15 9 45 66
internal_value=4.26052e-10 0.00135381 0.00406683 0.00503705 -0.00137745 0.00608434 -0.00185365 0.00666096 -0.00232861 0.000191188 -6.07422e-05 7.94523e-05 0.00259471 0.00355842 0.00497594 -0.000442219 0.00544547 0.00348388 0.00711936
internal_weight=1309 895 449 399 446 331 425 302 384 92 68 29 41 31 147 26 139 64 75
internal_count=1309 895 449 399 446 331 425 302 384 92 68 29 41 31 147 26 139 64 75
is_linear=0
shrinkage=0.0262989


Tree=31
num_leaves=20
num_cat=0
split_feature=30 35 17 8 37 28 2 3 16 28 37 13 6 16 28 34 11 15 27
split_gain=7.10978 9.0911 5.39911 5.30689 4.23525 2.81374 1.8378 1.87574 1.34643 1.34388 1.01135 0.897645 0.781541 0.588748 0.834621 1.28268 0.63904 0.584649 0.583346
threshold=-0.97721356747927335 -0.31415486862758157 -0.95378244369279563 -1.2056128768514245 -0.90628033016806053 1.2905389634294007 -0.12785024764724431 1.0362730699228826 -0.62825133953700685 0.41316686148584286 1.7015543334651337 0.038507770608635111 -0.37003726697646805 1.9119528302931745 -0.52687467631082585 -0.22756981024709702 1.8862739975465672 -0.84698018881437587 -0.7883730167737929
decision_type=2 2 2 2 2 2 2 2 2 2 2 2 2 2 2 2 2 2 2
left_child=-1 5 -3 -4 -5 10 7 17 9 12 13 -7 -8 16 -15 -16 -2 -6 -11
right_child=1 2 3 4 6 11 8 -9 -10 18 -12 -13 -14 14 15 -17 -18 -19 -20
leaf_value=-0.0028497476261578982 -0.0026483720963949532 -0.0027504787748348163 -0.0037359318313677256 -0.0017520821022755397 0.0052471405590539489 -0.001484640621552935 -0.0059286904615915761 0.0087023333654881376 0.0092938844590247944 0.00082518989842188652 0.0087577251573225257 0.0081057698087344063 0.0042297204747046612 -0.0029279361760856499 0.012975008831699331 -0.0014978546923194575 0.0028933111316776575 -0.0034331024495502785 0.010033064960564655
leaf_weight=414 355 70 41 40 7.0000000000000027 8.9999999999999982 10.000000000000002 22 196 6.0000000000000027 5.9999999999999991 27 10.999999999999998 17 8.0000000000000018 8.9999999999999982 14.999999999999998 23 23
leaf_count=414 355 70 41 40 7 9 10 22 196 6 6 27 11 17 8 9 15 23 23
internal_value=3.91174e-10 0.00131821 0.00395987 0.00519925 0.00628311 -0.00134123 0.00736166 0.00286962 0.00831119 0.00445903 -0.0019602 0.00570817 -0.000607619 -0.00211938 0.00119249 0.00531291 -0.00242371 -0.00140771 0.00812799
internal_weight=1309 895 449 379 338 446 298 52 246 50 410 36 21 404 34 17 370 30 29
internal_count=1309 895 449 379 338 446 298 52 246 50 410 36 21 404 34 17 370 30 29
is_linear=0
shrinkage=0.0262989


Tree=32
num_leaves=20
num_cat=0
split_feature=28 2 17 8 12 4 4 21 4 37 32 31 17 11 16 16 7 27 20
split_gain=6.70078 4.22532 2.9544 2.8354 2.7247 2.16266 1.54856 1.46994 1.07 1.00308 0.947399 0.899909 0.841971 0.793667 0.779057 0.715572 0.736725 0.70022 0.668424
threshold=1.0398612200169557 -0.12785024764724431 -0.95378244369279563 -1.2056128768514245 -1.1209637651449702 1.6817981366945765 -0.68581719151950771 -0.15255759219431209 1.6817981366945765 -0.90628033016806053 0.30947400023041788 1.0542729734402598 -0.073143829160195753 -0.22554375698385254 1.9119528302931745 1.0000000180025095e-35 1.1367227802123134 -0.80093496991523994 -0.16964142369337359
decision_type=2 2 2 2 2 2 2 2 2 2 2 2 2 2 2 2 2 2 2
left_child=1 7 -3 -4 15 6 18 -1 -9 11 12 -6 -10 -14 17 -5 -17 -11 -2
right_child=5 2 3 4 9 -7 -8 8 10 14 -12 -13 13 -15 -16 16 -18 -19 -20
leaf_value=0.0076366351170639168 0.0069119129637926682 -0.0031320896694646727 -0.0033010254080945997 -0.0031442158422824804 -0.0037733395909955976 0.0086420292780319888 -0.0014984958293821891 -0.0028421332328624699 -0.0043865563764303233 -0.0030473361817998004 0.011423148004647886 0.0077753385050416852 0.011811378783633645 -0.00084178431245513548 0.01014302220579693 0.0046320286298060535 -0.0048109347957921277 0.0040376298892550342 0.00061548015962691613
leaf_weight=9.9999999999999982 43 106 67 61 21.000000000000004 66 40 512 15.000000000000002 9.9999999999999982 5.9999999999999991 5.9999999999999991 6 7.9999999999999982 13.999999999999998 20.000000000000004 7.9999999999999991 274 15.999999999999998
leaf_count=10 43 106 67 61 21 66 40 512 15 10 6 6 6 8 14 20 8 274 16
internal_value=4.15424e-10 -0.000714592 0.000842312 0.00171817 0.00253045 0.00495451 0.00249616 -0.00235535 -0.00253802 0.00364693 0.00191071 -0.00120696 -5.73877e-05 0.00458101 0.00408671 -0.00154656 0.00193404 0.00378816 0.00520441
internal_weight=1309 1144 587 481 414 165 99 557 547 325 35 27 29 14 298 89 28 284 59
internal_count=1309 1144 587 481 414 165 99 557 547 325 35 27 29 14 298 89 28 284 59
is_linear=0
shrinkage=0.0262989


Tree=33
num_leaves=20
num_cat=0
split_feature=30 35 28 37 37 28 2 6 30 16 28 22 33 15 24 21 22 27 14
split_gain=6.64551 8.36959 2.58054 2.45778 1.91196 1.6993 1.68316 1.98371 1.00058 0.819784 0.995859 1.03331 0.605361 0.571789 0.861005 0.507146 0.467452 0.423079 0.493378
threshold=-0.97721356747927335 -0.31415486862758157 1.8545638861074019 -0.77423806871827849 1.7015543334651337 1.0398612200169557 -0.12785024764724431 -0.61133867599724467 -0.51034452159939103 1.9119528302931745 -0.52687467631082585 0.9051823430815763 0.78907695517814236 0.061198484067037727 0.013205968184230433 -0.11521486989757959 1.2130634163806342 -0.80093496991523994 0.12886313819739542
decision_type=2 2 2 2 2 2 2 2 2 2 2 2 2 2 2 2 2 2 2
left_child=16 2 4 -3 9 6 7 -5 -8 13 -11 -12 17 -2 -15 -4 -1 -10 -19
right_child=1 3 15 5 -6 -7 8 -9 12 10 11 -13 -14 14 -16 -17 -18 18 -20
leaf_value=-0.0028710260069578068 -0.0029382478545005013 -0.0015094575643212448 0.003002885645866234 0.013477864475675182 0.0090994976659811797 0.007918263919557399 -0.0036674655667349901 -0.0026203906478007902 -0.00084763252535991829 -0.0028415688325708877 0.011150336368299893 -0.0012715421631319251 -0.00095205912705322482 -0.0013403923043116264 0.0077033237787311861 0.011261390136973479 0.0039832111256864981 0.0064597938485851554 0.0040424070476817097
leaf_weight=407 289 53 9.0000000000000018 5.9999999999999991 10.999999999999998 81 9.9999999999999982 45 7.9999999999999991 17 11.000000000000002 7.9999999999999991 11.999999999999998 81 7.9999999999999991 11.999999999999998 6.9999999999999991 122 112
leaf_count=407 289 53 9 6 11 81 10 45 8 17 11 8 12 81 8 12 7 122 112
internal_value=4.1243e-10 0.00127444 -0.00127728 0.00380911 -0.00172195 0.00452094 0.00364735 -0.000726475 0.00449229 -0.00200948 0.00178263 0.00592007 0.00481354 -0.00237063 -0.000527473 0.00772204 -0.00275513 0.00509944 0.00530275
internal_weight=1309 895 446 449 425 396 315 51 264 414 36 19 254 378 89 21 414 242 234
internal_count=1309 895 446 449 425 396 315 51 264 414 36 19 254 378 89 21 414 242 234
is_linear=0
shrinkage=0.0262989


Tree=34
num_leaves=20
num_cat=0
split_feature=30 35 17 8 37 28 37 2 35 16 28 4 14 15 20 6 6 13 37
split_gain=6.30057 7.93516 4.90657 4.82404 3.73918 2.4466 1.81272 1.65853 1.63763 1.24215 1.17341 0.784297 0.770223 0.750323 0.916501 0.70517 0.657428 0.588986 0.987318
threshold=-0.97721356747927335 -0.31415486862758157 -0.95378244369279563 -1.2056128768514245 -0.90628033016806053 1.8545638861074019 1.7015543334651337 -0.12785024764724431 1.2267872615212885 -0.62825133953700685 0.41316686148584286 1.6817981366945765 -0.25209681349502455 0.084867461728789478 0.37301076170750191 -0.37003726697646805 1.2958558990865279 0.73485210366593756 0.94231133012888735
decision_type=2 2 2 2 2 2 2 2 2 2 2 2 2 2 2 2 2 2 2
left_child=-1 5 -3 -4 -5 6 11 8 -6 10 15 13 -13 -2 16 -9 -15 -10 -19
right_child=1 2 3 4 7 -7 -8 9 17 -11 -12 12 -14 14 -16 -17 -18 18 -20
leaf_value=-0.0026826760974579182 -0.0029313840981956495 -0.0026880167101274721 -0.0036285789672746349 -0.001626156404513326 -0.0032335199246746518 0.0075189558033448428 0.008860191641994801 -0.0056495407827030636 0.010405160957472874 0.0087831326452148407 0.007567645911245818 0.0068691456779072495 -0.0011395296066671488 -0.0020722223012483122 0.0063117800676905601 0.0039997779235236208 0.0070320237380114229 -0.0022960994394396442 0.010099182429358455
leaf_weight=414 295 70 41 40 20 21 10.999999999999998 10.000000000000002 13.999999999999998 196 29 12.999999999999998 23 64 12.999999999999998 10.999999999999998 5.9999999999999991 10.000000000000002 7.9999999999999991
leaf_count=414 295 70 41 40 20 21 11 10 14 196 29 13 23 64 13 11 6 10 8
internal_value=4.16472e-10 0.00124093 0.00370894 0.00489043 0.00592381 -0.00124369 -0.00167667 0.00693722 0.00266989 0.00783926 0.00413928 -0.00195663 0.00175249 -0.00230988 -0.000100925 -0.000595136 -0.00129186 0.00635953 0.00321292
internal_weight=1309 895 449 379 338 446 425 298 52 246 50 414 36 378 83 21 70 32 18
internal_count=1309 895 449 379 338 446 425 298 52 246 50 414 36 378 83 21 70 32 18
is_linear=0
shrinkage=0.0262989


Tree=35
num_leaves=20
num_cat=0
split_feature=30 35 17 8 37 28 37 2 35 16 28 16 28 22 9 21 27 23 30
split_gain=5.97353 7.52327 4.65189 4.57365 3.54509 2.3196 1.71863 1.57244 1.55263 1.17767 1.1125 0.753164 0.932409 0.970617 0.679692 0.654313 0.536769 0.524399 1.15668
threshold=-0.97721356747927335 -0.31415486862758157 -0.95378244369279563 -1.2056128768514245 -0.90628033016806053 1.8545638861074019 1.7015543334651337 -0.12785024764724431 1.2267872615212885 -0.62825133953700685 0.41316686148584286 1.9119528302931745 -0.52687467631082585 0.9051823430815763 1.0000000180025095e-35 -0.083937448675884166 -0.7883730167737929 0.3339047471325588 1.0000000180025095e-35
decision_type=2 2 2 2 2 2 2 2 2 2 2 2 2 2 2 2 2 2 2
left_child=-1 5 -3 -4 17 6 11 8 -6 10 14 -2 -13 -14 -9 -10 -12 -5 -19
right_child=1 2 3 4 7 -7 -8 9 15 -11 16 12 13 -15 -16 -17 -18 18 -20
leaf_value=-0.0026121247551107391 -0.0022513418475835043 -0.0026173248950273143 -0.0035331515101711796 -0.0037929965989363813 -0.0031484821049084649 0.0073212159789208817 0.0086271789729959192 0.0043827721743286852 0.0089139852231324198 0.0085521463277723232 0.00036343569785583866 -0.0027448759216480013 0.010802171890365841 -0.0012369849644770627 -0.0050906281163967783 0.00099629149859017095 0.0091960646702127068 0.011248849719804358 -0.0040263599306689865
leaf_weight=414 378 70 41 26 20 21 10.999999999999998 10.000000000000002 21 196 6.0000000000000027 17 11.000000000000002 7.9999999999999991 10.999999999999998 10.999999999999998 23 5.9999999999999991 7.9999999999999991
leaf_count=414 378 70 41 26 20 21 11 10 21 196 6 17 11 8 11 11 23 6 8
internal_value=4.37578e-10 0.00120829 0.0036114 0.00476182 0.00576802 -0.00121098 -0.00163257 0.00675478 0.00259968 0.0076331 0.00403042 -0.00190517 0.00172959 0.00573306 -0.000579485 0.00619228 0.00736863 -0.00158339 0.00252016
internal_weight=1309 895 449 379 338 446 425 298 52 246 50 414 36 19 21 32 29 40 14
internal_count=1309 895 449 379 338 446 425 298 52 246 50 414 36 19 21 32 29 40 14
is_linear=0
shrinkage=0.0262989


Tree=36
num_leaves=20
num_cat=0
split_feature=30 35 17 8 28 28 2 16 16 28 4 36 28 12 1 22 11 34 32
split_gain=5.66347 7.13277 4.41043 4.33625 2.88524 2.1992 1.36776 1.31511 1.21177 1.21567 0.829027 0.775319 0.815585 0.709571 0.69432 0.797597 0.543683 0.709284 0.532449
threshold=-0.97721356747927335 -0.31415486862758157 -0.95378244369279563 -1.2056128768514245 -0.77755241972327072 1.8545638861074019 -0.50699283269447315 -0.62825133953700685 1.9119528302931745 -0.52687467631082585 -0.68581719151950771 -0.65748096590181748 1.5412167068418456 1.1330309007671477 0.3533889199737264 0.9051823430815763 1.8862739975465672 1.0000000180025095e-35 0.30947400023041788
decision_type=2 2 2 2 2 2 2 2 2 2 2 2 2 2 2 2 2 2 2
left_child=-1 5 -3 -4 7 8 13 -5 16 -10 11 12 18 -6 15 -11 -2 -18 -8
right_child=1 2 3 4 6 -7 10 -9 9 14 -12 -13 -14 -15 -16 -17 17 -19 -20
leaf_value=-0.0025434289086533946 -0.0022614730499056321 -0.002548492325988702 -0.0034402337027127209 -0.0032555299161908728 -0.00317840079316633 0.0071286765939298892 -0.0061254782269129599 0.0054297932607037793 -0.002672688811808785 0.009440627257390902 0.007965382872292941 0.0073990687705296765 0.0097042505141028811 0.0059938568228572499 0.011382046845919666 -0.0036263476426571066 -0.0025152826246097504 0.0082470116620046944 0.0023365249729695764
leaf_weight=414 367 70 41 33 14 21 9.0000000000000053 19 17 6.0000000000000018 207 28 5.9999999999999991 10 10.999999999999998 7 9.0000000000000018 7.9999999999999991 11.999999999999998
leaf_count=414 367 70 41 33 14 21 9 19 17 6 207 28 6 10 11 7 9 8 12
internal_value=4.29045e-10 0.00117651 0.00351642 0.00463659 0.00561632 -0.00117913 0.00665239 -8.20456e-05 -0.00158964 0.00270796 0.00720284 0.00433288 0.00115313 0.000643374 0.00651925 0.00240457 -0.00204849 0.00254933 -0.00129005
internal_weight=1309 895 449 379 338 446 286 52 425 41 262 55 27 24 24 13 384 17 21
internal_count=1309 895 449 379 338 446 286 52 425 41 262 55 27 24 24 13 384 17 21
is_linear=0
shrinkage=0.0262989


Tree=37
num_leaves=20
num_cat=0
split_feature=30 35 17 8 37 28 37 2 3 16 9 28 4 14 15 20 6 25 23
split_gain=5.3695 6.76254 4.1815 4.11117 3.20012 2.08505 1.58579 1.44403 1.44503 1.07927 1.01819 1.08844 0.700841 0.721661 0.688666 0.818002 0.60745 0.563396 0.496247
threshold=-0.97721356747927335 -0.31415486862758157 -0.95378244369279563 -1.2056128768514245 -0.90628033016806053 1.8545638861074019 1.7015543334651337 -0.12785024764724431 1.0362730699228826 -0.62825133953700685 1.0000000180025095e-35 1.0398612200169557 1.6817981366945765 -0.25209681349502455 0.084867461728789478 0.37301076170750191 1.2958558990865279 -0.061542785935304593 0.3339047471325588
decision_type=2 2 2 2 2 2 2 2 2 2 2 2 2 2 2 2 2 2 2
left_child=-1 5 -3 -4 18 6 12 8 -6 10 -9 -12 14 17 -2 16 -16 -14 -5
right_child=1 2 3 4 7 -7 -8 9 -10 -11 11 -13 13 -15 15 -17 -18 -19 -20
leaf_value=-0.0024765396247120345 -0.0027390331629449918 -0.0024814698580326025 -0.0033497595077757931 -0.0036654316410255198 -0.0013299483931493365 0.0069412006012163829 0.0083074320644801383 0.0071255447942292164 0.0075437526440074142 0.0081276539596795202 -0.0053020653286968917 0.0065954654190114332 0.0015805430239823675 -0.001102820081252047 -0.0019025974405781762 0.0060309565714134362 0.0068487546102813171 0.012562773383440128 0.0024759335590715495
leaf_weight=414 295 70 41 26 30 21 10.999999999999998 28 22 196 13.000000000000002 8.9999999999999982 7 23 64 12.999999999999998 5.9999999999999991 5.9999999999999982 13.999999999999998
leaf_count=414 295 70 41 26 30 21 11 28 22 196 13 9 7 23 64 13 6 6 14
internal_value=4.34734e-10 0.00114557 0.00342394 0.00451465 0.00546862 -0.00114812 -0.00154783 0.00640615 0.00242431 0.00724784 0.00379895 -0.000434892 -0.00180969 0.00169655 -0.00214361 -2.73625e-05 -0.00115248 0.00664927 -0.00151595
internal_weight=1309 895 449 379 338 446 425 298 52 246 50 22 414 36 378 83 70 13 40
internal_count=1309 895 449 379 338 446 425 298 52 246 50 22 414 36 378 83 70 13 40
is_linear=0
shrinkage=0.0262989


Tree=38
num_leaves=20
num_cat=0
split_feature=30 35 17 8 37 28 37 2 35 16 28 4 14 15 24 6 6 21 25
split_gain=5.09079 6.41152 3.96446 3.89778 3.03402 1.97682 1.50347 1.36908 1.37876 1.02325 0.979773 0.664463 0.695788 0.65292 0.788786 0.904895 0.62681 0.611605 0.508555
threshold=-0.97721356747927335 -0.31415486862758157 -0.95378244369279563 -1.2056128768514245 -0.90628033016806053 1.8545638861074019 1.7015543334651337 -0.12785024764724431 1.2267872615212885 -0.62825133953700685 0.41316686148584286 1.6817981366945765 0.39009281935791201 0.084867461728789478 -0.048979423609102339 0.21380557440818712 -0.37003726697646805 -0.083937448675884166 -0.050645383662412884
decision_type=2 2 2 2 2 2 2 2 2 2 2 2 2 2 2 2 2 2 2
left_child=-1 5 -3 -4 -5 6 11 8 -6 10 16 13 18 -2 -15 -16 -9 -10 -13
right_child=1 2 3 4 7 -7 -8 9 17 -11 -12 12 -14 14 15 -17 -18 -19 -20
leaf_value=-0.0024114094683465193 -0.0026669997620819767 -0.0024162100732661642 -0.0032616647568514366 -0.0014760857402242907 -0.0030561974146179026 0.0067586551337124115 0.0080889563999642956 -0.0053924374550705671 0.0083774057866177719 0.0079139060201981436 0.0068317896091825824 0.0014979945143478082 -0.0024357659824400537 -0.0014235396655458814 -0.00021580621605217908 0.01140861286138215 0.0037049742571700051 0.00072247198794761546 0.010058218339984814
leaf_weight=414 295 70 41 40 20 21 10.999999999999998 10.000000000000002 21 196 29 11.999999999999998 15.999999999999998 64 11.000000000000002 7.9999999999999991 10.999999999999998 10.999999999999998 8.0000000000000018
leaf_count=414 295 70 41 40 20 21 11 10 21 196 29 12 16 64 11 8 11 11 8
internal_value=4.42817e-10 0.00111545 0.0033339 0.00439592 0.0053248 -0.00111793 -0.00150712 0.00623767 0.00236055 0.00705723 0.00369905 -0.00176209 0.00165193 -0.00208724 -2.66428e-05 0.00467869 -0.000627127 0.00574602 0.00492209
internal_weight=1309 895 449 379 338 446 425 298 52 246 50 414 36 378 83 19 21 32 20
internal_count=1309 895 449 379 338 446 425 298 52 246 50 414 36 378 83 19 21 32 20
is_linear=0
shrinkage=0.0262989


Tree=39
num_leaves=20
num_cat=0
split_feature=30 35 17 8 37 28 37 2 35 16 9 28 16 28 22 13 37 23 11
split_gain=4.82655 6.07872 3.75868 3.69546 2.87653 1.87421 1.42543 1.29802 1.30719 0.97014 0.94909 0.996897 0.63908 0.812174 0.847765 0.522528 0.885001 0.470489 1.08359
threshold=-0.97721356747927335 -0.31415486862758157 -0.95378244369279563 -1.2056128768514245 -0.90628033016806053 1.8545638861074019 1.7015543334651337 -0.12785024764724431 1.2267872615212885 -0.62825133953700685 1.0000000180025095e-35 1.0398612200169557 1.9119528302931745 -0.52687467631082585 0.9051823430815763 0.73485210366593756 0.94231133012888735 0.3339047471325588 -0.28683027935670519
decision_type=2 2 2 2 2 2 2 2 2 2 2 2 2 2 2 2 2 2 2
left_child=-1 5 -3 -4 17 6 12 8 -6 10 -9 -12 -2 -14 -15 -10 -17 -5 -19
right_child=1 2 3 4 7 -7 -8 9 15 -11 11 -13 13 14 -16 16 -18 18 -20
leaf_value=-0.0023479921461903408 -0.0020346268644363926 -0.0023526665391034006 -0.0031758867247083959 -0.0035302157427006711 -0.0029758229754372682 0.006580910384771251 0.0078762264518421748 0.0068134856054421905 0.0094054675540714075 0.007705779245195955 -0.0051438871114483269 0.0062423445181471809 -0.0025435891709914109 0.010106326874301136 -0.0011451559175942145 -0.0025846206251717591 0.0091508287750282236 0.010898040516375267 -0.0038866707850639397
leaf_weight=414 378 70 41 26 20 21 10.999999999999998 28 13.999999999999998 196 13.000000000000002 8.9999999999999982 17 11.000000000000002 7.9999999999999991 10.000000000000002 7.9999999999999991 6 7.9999999999999982
leaf_count=414 378 70 41 26 20 21 11 28 14 196 13 9 17 11 8 10 8 6 8
internal_value=4.27249e-10 0.00108611 0.00324622 0.00428032 0.00518477 -0.00108853 -0.00146749 0.00607363 0.00229847 0.00687163 0.00360176 -0.000485882 -0.00171575 0.00163243 0.00536886 0.00559491 0.00263114 -0.00143727 0.00244964
internal_weight=1309 895 449 379 338 446 425 298 52 246 50 22 414 36 19 32 18 40 14
internal_count=1309 895 449 379 338 446 425 298 52 246 50 22 414 36 19 32 18 40 14
is_linear=0
shrinkage=0.0262989


Tree=40
num_leaves=20
num_cat=0
split_feature=30 35 17 8 36 16 2 30 4 14 15 31 23 25 23 8 9 17 12
split_gain=4.57602 5.7632 3.56358 3.50364 2.19018 1.24207 1.16985 1.42415 1.14103 0.812771 0.701166 0.976348 0.707598 0.690791 0.660078 0.652889 0.608356 0.622413 0.530554
threshold=-0.97721356747927335 -0.31415486862758157 -0.95378244369279563 -1.2056128768514245 -0.65748096590181748 -0.62825133953700685 -0.12785024764724431 0.89026261604025569 1.6817981366945765 -0.25209681349502455 0.061198484067037727 0.23692110772101302 1.5450532459008461 -0.050645383662412884 0.1664757679818171 -0.097281156179916048 0.4074249597810235 -0.44498029485858043 -1.1209637651449702
decision_type=2 2 2 2 2 2 2 2 2 2 2 2 2 2 2 2 2 2 2
left_child=-1 8 -3 -4 5 16 7 -6 10 13 -2 12 -12 -10 -7 -11 17 -5 -13
right_child=1 2 3 4 6 14 -8 -9 9 15 11 18 -14 -15 -16 -17 -18 -19 -20
leaf_value=-0.0022862426522237082 -0.0021514004340184942 -0.0022907941245710853 -0.0030923645738461826 0.0078453446510600312 0.0074845694285488769 0.0027941364557669758 0.0072395734240839078 -0.0031296555078211084 0.0030614877586317866 0.0038408529562312787 -0.0015765659017459479 0.0017668552693492615 0.0071818996956958345 0.01362968581647921 0.0094902347365384623 -0.0037963022385769504 -0.0043332801821940421 -0.0003560134642827614 0.011074927608692839
leaf_weight=414 301 70 41 7.9999999999999991 17 28 199 18 11.000000000000002 16.000000000000004 72 9.0000000000000018 6.9999999999999991 6.9999999999999991 15.999999999999998 14.999999999999998 20 32 7.9999999999999991
leaf_count=414 301 70 41 8 17 28 199 18 11 16 72 9 7 7 16 15 20 32 8
internal_value=4.20513e-10 0.00105755 0.00316085 0.00416775 0.00504841 0.00187293 0.00645974 0.00202583 -0.0010599 0.0027264 -0.00152723 0.000429812 -0.000800498 0.00717135 0.00522908 0.000145455 -0.000588254 0.00128426 0.00614713
internal_weight=1309 895 449 379 338 104 234 35 446 49 397 96 79 18 44 31 60 40 17
internal_count=1309 895 449 379 338 104 234 35 446 49 397 96 79 18 44 31 60 40 17
is_linear=0
shrinkage=0.0262989


Tree=41
num_leaves=20
num_cat=0
split_feature=28 30 35 17 8 37 2 30 37 6 27 7 21 9 9 4 11 34 15
split_gain=4.35291 3.08695 4.80527 3.11079 2.97945 2.3796 1.54897 1.44009 1.07342 0.887034 0.793766 0.780653 0.662058 0.594528 0.45939 0.447935 0.566549 0.652245 0.480881
threshold=1.5412167068418456 -0.97721356747927335 -0.31415486862758157 -0.95378244369279563 -1.2056128768514245 -0.90628033016806053 -0.12785024764724431 -0.51034452159939103 1.7015543334651337 -0.61133867599724467 -0.80093496991523994 -0.38415292869186562 -0.15255759219431209 0.99191699672987432 1.7712397126616757 0.49799047258753421 1.8862739975465672 -1.0000000180025095e-35 1.5054795009871282
decision_type=2 2 2 2 2 2 2 2 2 2 2 2 2 2 2 2 2 2 2
left_child=1 14 8 -4 -5 -6 9 -8 12 -7 -9 -11 -3 -2 -1 16 18 -18 -14
right_child=13 2 3 4 5 6 7 10 -10 11 -12 -13 15 -15 -16 -17 17 -19 -20
leaf_value=-0.0023367378531278676 0.0071309263151303429 0.0058784201870934732 -0.0025303133662314373 -0.0030110389387164047 -0.0014149459375663691 0.010222981552070937 -0.0028859285484950513 -0.00075313753114055403 0.0075689962060382122 0.0079605534598651811 0.0072352564746686245 -0.0024309977458486717 -0.0024915610887205749 -0.00047328488401212758 0.0044582713606957629 0.00084233515804221543 -0.0017882551417264024 0.009682323252977517 0.0020444184243446225
leaf_weight=406 64 7.9999999999999991 68 41 40 5.9999999999999991 10.999999999999998 8.9999999999999982 8.9999999999999982 5.9999999999999991 195 30 329 7.9999999999999991 6.9999999999999991 41 7.9999999999999991 5.9999999999999991 17
leaf_count=406 64 8 68 41 40 6 11 9 9 6 195 30 329 8 7 41 8 6 17
internal_value=4.4626e-10 -0.000365879 0.000564217 0.002602 0.00363453 0.00455194 0.00548063 0.00638303 -0.00141506 0.000861226 0.00688283 -0.00069907 -0.00161276 0.00628601 -0.00222157 -0.00176221 -0.00205883 0.00312771 -0.00226869
internal_weight=1309 1237 824 406 338 297 257 215 418 42 204 36 409 72 413 401 360 14 346
internal_count=1309 1237 824 406 338 297 257 215 418 42 204 36 409 72 413 401 360 14 346
is_linear=0
shrinkage=0.0262989


Tree=42
num_leaves=20
num_cat=0
split_feature=28 30 2 17 8 16 4 21 4 7 28 23 28 35 19 20 13 18 15
split_gain=4.13575 2.70248 5.37521 4.57998 4.06404 1.74136 1.36733 1.16632 1.0488 1.01023 1.37139 0.61604 0.673186 0.914692 0.566412 0.550053 0.491297 0.438408 0.433836
threshold=1.0398612200169557 0.89026261604025569 -0.12785024764724431 -0.95378244369279563 -1.2056128768514245 1.9119528302931745 1.6817981366945765 -0.15255759219431209 -0.68581719151950771 1.1367227802123134 -1.1535690348419381 0.47421772553744906 2.4812582446385147 1.2267872615212885 1.3756420277461638 -0.14077710202887525 0.43641881806995059 -0.18500864711118895 -0.83467232043026496
decision_type=2 2 2 2 2 2 2 2 2 2 2 2 2 2 2 2 2 2 2
left_child=1 5 -3 -4 -5 7 8 -1 11 10 -7 12 13 17 -6 -11 -13 -2 -12
right_child=6 2 3 4 14 9 -8 -9 -10 15 18 16 -14 -15 -16 -17 -18 -19 -20
leaf_value=0.0074149348800486093 0.0024884755761801582 -0.0023255871299653298 -0.0028618281016086489 -0.0032224786721551874 0.0074688320208385825 -0.0029041283581147841 0.0068244622043092552 -0.0021196142509257274 -0.0013498204069633589 -0.0054142831581105314 0.013195934385066188 0.0043168298256834386 0.0079094551728293386 0.0056470190255160629 -0.00076441545862601375 0.0027898198683916986 0.01385711007903734 -0.0062180698874492865 0.0060443129314285285
leaf_weight=8.9999999999999982 5.9999999999999973 187 59 31 157 10.999999999999998 66 631 40 13.000000000000002 8.0000000000000018 7.9999999999999982 11.999999999999998 13.999999999999998 5.9999999999999991 9.9999999999999982 7 12.000000000000004 22
leaf_count=9 6 187 59 31 157 11 66 631 40 13 8 8 12 14 6 10 7 12 22
internal_value=4.42966e-10 -0.0005614 0.00105543 0.00355445 0.00550579 -0.00157192 0.00389238 -0.00198553 0.00193765 0.00256421 0.00503895 0.00416645 0.00259741 0.000605384 0.00716577 -0.00184728 0.00876897 -0.00331589 0.00795142
internal_weight=1309 1144 440 253 194 704 165 640 99 64 41 59 44 32 163 23 15 18 30
internal_count=1309 1144 440 253 194 704 165 640 99 64 41 59 44 32 163 23 15 18 30
is_linear=0
shrinkage=0.0262989


Tree=43
num_leaves=20
num_cat=0
split_feature=30 28 17 8 2 16 17 8 7 36 33 5 19 29 21 15 6 0 1
split_gain=3.92285 4.7708 2.53749 2.0758 1.9277 1.36612 1.89853 1.72399 1.53089 1.20995 0.743515 0.708613 0.898448 0.935438 0.665396 0.576523 1.03178 0.620785 0.447551
threshold=-0.97721356747927335 0.28782798977962043 -0.95378244369279563 -1.2056128768514245 -0.12785024764724431 -0.62825133953700685 -0.92689658737354008 -1.2056128768514245 1.1367227802123134 -0.20664523386917058 -0.12616368072977935 -0.057796587656375444 0.038635739472662634 0.3782104284408338 -0.15255759219431209 0.084867461728789478 -0.46667201106223327 0.77451689730755569 0.78848242106919653
decision_type=2 2 2 2 2 2 2 2 2 2 2 2 2 2 2 2 2 2 2
left_child=-1 4 18 -4 14 15 -7 -8 -9 10 11 -5 -13 -14 -2 -6 -17 -18 -3
right_child=1 2 3 9 5 6 7 8 -10 -11 -12 12 13 -15 -16 16 17 -19 -20
leaf_value=-0.0021167968709235943 0.0056243332233779243 -0.0033443997508828642 -0.0028027007890909718 -0.0071990397362198923 -0.0026026502347210696 -0.002588054081558318 -0.0031922108219903417 0.00693217261460638 -0.0050954049907347854 0.0066168157290065251 0.0055981830685644914 -0.00046681344777107277 0.0078582109938625661 -0.0030185601800485767 -0.0020571770221715197 -0.0046952711789230344 0.013112551636700144 0.0019220170365789775 0.004358088615603683
leaf_weight=414 7.9999999999999991 40 26 5.9999999999999991 64 34 17 86 7.9999999999999991 145 50 39 25 6.9999999999999991 311 9.0000000000000018 5.9999999999999973 8 5.9999999999999991
leaf_count=414 8 40 26 6 64 34 17 86 8 145 50 39 25 7 311 9 6 8 6
internal_value=4.55615e-10 0.000979167 0.00340923 0.00429665 -0.000537969 0.00128606 0.00284926 0.00451474 0.00590855 0.00497527 0.00310106 0.00147955 0.00221295 0.00547892 -0.00186454 -0.00131926 0.00225192 0.00671797 -0.00233973
internal_weight=1309 895 344 298 551 232 145 111 94 272 127 77 71 32 319 87 23 14 46
internal_count=1309 895 344 298 551 232 145 111 94 272 127 77 71 32 319 87 23 14 46
is_linear=0
shrinkage=0.0262989


Tree=44
num_leaves=20
num_cat=0
split_feature=30 36 8 17 37 37 2 17 24 24 2 30 6 12 4 6 27 0 2
split_gain=3.71923 3.68147 2.52278 2.58706 2.08329 1.84084 1.6269 0.902285 0.845616 0.906932 0.585747 1.13748 0.585563 0.697047 0.707307 0.550724 0.519497 0.461953 0.446072
threshold=-0.97721356747927335 -0.20664523386917058 -1.2056128768514245 -1.0877044449811635 -0.70821693799338759 0.94231133012888735 0.37767319908239372 -0.92689658737354008 -0.018645086148939994 -0.10509794791040263 -0.12785024764724431 0.89026261604025569 0.73522975478431329 0.56953223428911814 1.6817981366945765 -0.70154125318639926 -0.56225786022774871 -0.37006374273746234 -0.38061197101206368
decision_type=2 2 2 2 2 2 2 2 2 2 2 2 2 2 2 2 2 2 2
left_child=-1 5 -3 18 -5 6 -2 -8 9 -9 11 16 13 -7 -15 -12 -6 -11 -4
right_child=1 2 3 4 10 12 7 8 -10 17 15 -13 -14 14 -16 -17 -18 -19 -20
leaf_value=-0.0020611275585618351 -0.0017133130276506684 -0.0028360996903350972 0.0045670706544376685 -0.0017787180203041679 0.00024080392439531915 -0.00054569149106912563 -0.0028008938011592423 -0.0016259806888744345 -0.0038273264451934032 0.013290074134569483 0.00043948580258652918 -0.0031388299394291917 0.011462904089394913 0.001880346607238718 0.0090963788458916402 0.0067922013018624668 0.0070831617590224622 0.0054770898214945825 -0.003163234537227143
leaf_weight=414 388 44 5.9999999999999991 29 9.9999999999999982 25 19 11.999999999999998 8.9999999999999982 5.9999999999999991 9.9999999999999982 13.999999999999998 5.9999999999999991 21 17 168 33 41 37
leaf_count=414 388 44 6 29 10 25 19 12 9 6 10 14 6 21 17 168 33 41 37
internal_value=4.41395e-10 0.000953416 0.00305323 0.00389731 0.00487163 -0.00040143 -0.000984503 0.00226582 0.00368152 0.00482694 0.00569231 0.00337208 0.00361248 0.00286482 0.00510857 0.00643531 0.00549192 0.0064745 -0.00208459
internal_weight=1309 895 351 307 264 544 475 87 68 59 235 57 69 63 38 178 43 47 43
internal_count=1309 895 351 307 264 544 475 87 68 59 235 57 69 63 38 178 43 47 43
is_linear=0
shrinkage=0.0262989


Tree=45
num_leaves=20
num_cat=0
split_feature=28 30 35 17 8 16 2 9 37 5 18 14 21 9 22 29 28 23 5
split_gain=3.60428 2.49473 3.97562 2.52413 2.44329 1.9868 1.8914 1.3932 0.910868 0.852329 0.696314 0.652392 0.553577 0.537317 0.430253 0.370999 0.679695 0.497147 0.473069
threshold=1.5412167068418456 -0.97721356747927335 -0.31415486862758157 -0.95378244369279563 -1.2056128768514245 -0.62825133953700685 -0.12785024764724431 1.0000000180025095e-35 1.7015543334651337 -0.057009826428422665 1.5775332177410319 0.39009281935791201 -0.15255759219431209 0.99191699672987432 1.2130634163806342 -0.55122479005586766 1.0398612200169557 -0.8455919834923914 -0.038333438400384647
decision_type=2 2 2 2 2 2 2 2 2 2 2 2 2 2 2 2 2 2 2
left_child=1 14 8 -4 -5 7 9 11 12 -7 -9 -6 -3 -2 -1 16 17 18 -14
right_child=13 2 3 4 5 6 -8 10 -10 -11 -12 -13 15 -15 -16 -17 -18 -19 -20
leaf_value=-0.0021126084271709 0.0065232128573886007 0.0053707750074330225 -0.0022663676234728368 -0.0027311755019743256 0.0076679847132081801 0.0076448728432063559 0.0064610782530833671 -0.0030777680899440555 0.0069788028361116557 -0.0027374864451066541 0.0058254926825658257 -0.0016026916137127838 0.0073821278224724327 -0.00070586894853462466 0.0044633831335427849 -0.0020953968347106789 0.0076382854923460449 -0.0016289339280984117 -0.0021512693644092592
leaf_weight=406 64 7.9999999999999991 68 41 21.000000000000004 6.9999999999999991 184 46 8.9999999999999982 25 6.9999999999999991 6.9999999999999991 8.9999999999999982 7.9999999999999991 6.9999999999999991 295 6.9999999999999991 84 5.9999999999999991
leaf_count=406 64 8 68 41 21 7 184 46 9 25 7 7 9 8 7 295 7 84 6
internal_value=4.44763e-10 -0.000332933 0.0005032 0.00235673 0.00328683 0.00411759 0.00543479 0.000605063 -0.00129712 -0.000466343 -0.00190186 0.00535032 -0.00147923 0.00571998 -0.00200115 -0.00161589 -0.000281422 -0.000841402 0.00356877
internal_weight=1309 1237 824 406 338 297 216 81 418 32 53 28 409 72 413 401 106 99 15
internal_count=1309 1237 824 406 338 297 216 81 418 32 53 28 409 72 413 401 106 99 15
is_linear=0
shrinkage=0.0262989


Tree=46
num_leaves=20
num_cat=0
split_feature=28 30 35 17 8 36 2 16 30 37 23 28 21 28 6 9 9 31 4
split_gain=3.41719 2.36524 3.76926 2.39311 2.31647 2.06427 1.05769 1.05589 0.894654 0.863589 0.742585 0.635623 0.524843 0.522677 0.510086 0.509427 0.421875 0.394521 0.377262
threshold=1.5412167068418456 -0.97721356747927335 -0.31415486862758157 -0.95378244369279563 -1.2056128768514245 -0.65748096590181748 -0.12785024764724431 -0.62825133953700685 0.89026261604025569 1.7015543334651337 0.1664757679818171 -0.46420524045771455 -0.15255759219431209 1.0398612200169557 -0.70154125318639926 0.99191699672987432 1.7712397126616757 -0.15262531338773386 0.49799047258753421
decision_type=2 2 2 2 2 2 2 2 2 2 2 2 2 2 2 2 2 2 2
left_child=1 16 9 -4 -5 7 8 13 -7 12 11 -9 -3 -6 -8 -2 -1 -16 -14
right_child=15 2 3 4 5 6 14 10 -10 -11 -12 -13 18 -15 17 -17 -18 -19 -20
